<?xml version="1.0"?>
<opencv_storage>
<cascade>
  <stageType>BOOST</stageType>
  <featureType>HAAR</featureType>
  <height>18</height>
  <width>17</width>
  <stageParams>
    <boostType>GAB</boostType>
    <minHitRate>9.9500000476837158e-01</minHitRate>
    <maxFalseAlarm>5.0000000000000000e-01</maxFalseAlarm>
    <weightTrimRate>9.4999999999999996e-01</weightTrimRate>
    <maxDepth>1</maxDepth>
    <maxWeakCount>100</maxWeakCount></stageParams>
  <featureParams>
    <maxCatCount>0</maxCatCount>
    <featSize>1</featSize>
    <mode>BASIC</mode></featureParams>
  <stageNum>10</stageNum>
  <stages>
    <!-- stage 0 -->
    <_>
      <maxWeakCount>20</maxWeakCount>
      <stageThreshold>-1.3234668970108032e+00</stageThreshold>
      <weakClassifiers>
        <_>
          <internalNodes>
            0 -1 47 1.6346025466918945e-01</internalNodes>
          <leafValues>
            -4.6448087692260742e-01 8.8014984130859375e-01</leafValues></_>
        <_>
          <internalNodes>
            0 -1 200 6.8124718964099884e-02</internalNodes>
          <leafValues>
            -1.3790665566921234e-01 8.1541788578033447e-01</leafValues></_>
        <_>
          <internalNodes>
            0 -1 475 -3.3659178297966719e-03</internalNodes>
          <leafValues>
            4.5238420367240906e-01 -2.6225480437278748e-01</leafValues></_>
        <_>
          <internalNodes>
            0 -1 314 8.0386968329548836e-03</internalNodes>
          <leafValues>
            -2.1124224364757538e-01 4.5244520902633667e-01</leafValues></_>
        <_>
          <internalNodes>
            0 -1 152 -4.9024894833564758e-02</internalNodes>
          <leafValues>
            5.4084676504135132e-01 -2.2477270662784576e-01</leafValues></_>
        <_>
          <internalNodes>
            0 -1 386 9.2047844082117081e-03</internalNodes>
          <leafValues>
            -1.7436705529689789e-01 5.3046154975891113e-01</leafValues></_>
        <_>
          <internalNodes>
            0 -1 8 -5.2039302885532379e-02</internalNodes>
          <leafValues>
            3.9242994785308838e-01 -1.7869827151298523e-01</leafValues></_>
        <_>
          <internalNodes>
            0 -1 395 3.2735541462898254e-03</internalNodes>
          <leafValues>
            -1.6657854616641998e-01 3.4655159711837769e-01</leafValues></_>
        <_>
          <internalNodes>
            0 -1 409 1.9869622774422169e-03</internalNodes>
          <leafValues>
            -2.1614818274974823e-01 3.0948308110237122e-01</leafValues></_>
        <_>
          <internalNodes>
            0 -1 81 9.5178540796041489e-03</internalNodes>
          <leafValues>
            -1.3524974882602692e-01 3.2815995812416077e-01</leafValues></_>
        <_>
          <internalNodes>
            0 -1 442 1.1321485042572021e-02</internalNodes>
          <leafValues>
            -1.1592248827219009e-01 4.9748620390892029e-01</leafValues></_>
        <_>
          <internalNodes>
            0 -1 378 -1.6619449481368065e-02</internalNodes>
          <leafValues>
            4.7641101479530334e-01 -9.0328827500343323e-02</leafValues></_>
        <_>
          <internalNodes>
            0 -1 94 5.2191864699125290e-02</internalNodes>
          <leafValues>
            -1.1543178558349609e-01 3.9143499732017517e-01</leafValues></_>
        <_>
          <internalNodes>
            0 -1 369 -2.8711635619401932e-02</internalNodes>
          <leafValues>
            3.4513702988624573e-01 -1.3558375835418701e-01</leafValues></_>
        <_>
          <internalNodes>
            0 -1 247 4.1076920926570892e-02</internalNodes>
          <leafValues>
            -1.1563713103532791e-01 4.5346397161483765e-01</leafValues></_>
        <_>
          <internalNodes>
            0 -1 460 1.0972985997796059e-02</internalNodes>
          <leafValues>
            1.3324463367462158e-01 -3.6787277460098267e-01</leafValues></_>
        <_>
          <internalNodes>
            0 -1 98 -3.4047111868858337e-02</internalNodes>
          <leafValues>
            4.4017177820205688e-01 -8.7845169007778168e-02</leafValues></_>
        <_>
          <internalNodes>
            0 -1 351 -5.8580571785569191e-03</internalNodes>
          <leafValues>
            2.7895236015319824e-01 -1.4233222603797913e-01</leafValues></_>
        <_>
          <internalNodes>
            0 -1 367 5.3028296679258347e-04</internalNodes>
          <leafValues>
            -1.6820956766605377e-01 2.5398921966552734e-01</leafValues></_>
        <_>
          <internalNodes>
            0 -1 485 -5.2862158045172691e-03</internalNodes>
          <leafValues>
            -6.7533534765243530e-01 5.6707210838794708e-02</leafValues></_></weakClassifiers></_>
    <!-- stage 1 -->
    <_>
      <maxWeakCount>32</maxWeakCount>
      <stageThreshold>-1.2874580621719360e+00</stageThreshold>
      <weakClassifiers>
        <_>
          <internalNodes>
            0 -1 51 1.5501880645751953e-01</internalNodes>
          <leafValues>
            -4.3732273578643799e-01 8.2974058389663696e-01</leafValues></_>
        <_>
          <internalNodes>
            0 -1 157 1.1173076927661896e-01</internalNodes>
          <leafValues>
            -1.3106060028076172e-01 7.7282834053039551e-01</leafValues></_>
        <_>
          <internalNodes>
            0 -1 455 -3.3293981105089188e-02</internalNodes>
          <leafValues>
            5.1745724678039551e-01 -2.0403665304183960e-01</leafValues></_>
        <_>
          <internalNodes>
            0 -1 12 -6.9629043340682983e-02</internalNodes>
          <leafValues>
            4.9528491497039795e-01 -1.3088287413120270e-01</leafValues></_>
        <_>
          <internalNodes>
            0 -1 263 8.9876493439078331e-03</internalNodes>
          <leafValues>
            -1.9808447360992432e-01 3.5736918449401855e-01</leafValues></_>
        <_>
          <internalNodes>
            0 -1 365 2.4423552677035332e-02</internalNodes>
          <leafValues>
            -1.3511654734611511e-01 5.2046728134155273e-01</leafValues></_>
        <_>
          <internalNodes>
            0 -1 102 6.4413351938128471e-03</internalNodes>
          <leafValues>
            -1.0853198170661926e-01 3.9096835255622864e-01</leafValues></_>
        <_>
          <internalNodes>
            0 -1 452 3.9666831493377686e-02</internalNodes>
          <leafValues>
            -1.8057186901569366e-01 3.7635764479637146e-01</leafValues></_>
        <_>
          <internalNodes>
            0 -1 356 -9.8597399890422821e-02</internalNodes>
          <leafValues>
            4.7134914994239807e-01 -1.1592278629541397e-01</leafValues></_>
        <_>
          <internalNodes>
            0 -1 252 -9.6614405512809753e-02</internalNodes>
          <leafValues>
            6.0209059715270996e-01 -6.1901874840259552e-02</leafValues></_>
        <_>
          <internalNodes>
            0 -1 310 3.3773094415664673e-02</internalNodes>
          <leafValues>
            -1.0160131007432938e-01 4.8069998621940613e-01</leafValues></_>
        <_>
          <internalNodes>
            0 -1 7 4.5445188879966736e-04</internalNodes>
          <leafValues>
            1.6908846795558929e-01 -2.8464537858963013e-01</leafValues></_>
        <_>
          <internalNodes>
            0 -1 343 -1.2317984364926815e-02</internalNodes>
          <leafValues>
            4.0771228075027466e-01 -1.1855730414390564e-01</leafValues></_>
        <_>
          <internalNodes>
            0 -1 87 -4.3108046054840088e-02</internalNodes>
          <leafValues>
            -6.7184740304946899e-01 6.3509158790111542e-02</leafValues></_>
        <_>
          <internalNodes>
            0 -1 469 5.2914361731382087e-05</internalNodes>
          <leafValues>
            1.6487912833690643e-01 -2.3118090629577637e-01</leafValues></_>
        <_>
          <internalNodes>
            0 -1 358 3.1901714392006397e-03</internalNodes>
          <leafValues>
            -1.0636445134878159e-01 3.2137891650199890e-01</leafValues></_>
        <_>
          <internalNodes>
            0 -1 14 6.4267873764038086e-02</internalNodes>
          <leafValues>
            -5.6270882487297058e-02 5.7203775644302368e-01</leafValues></_>
        <_>
          <internalNodes>
            0 -1 58 5.2722976543009281e-03</internalNodes>
          <leafValues>
            5.6892540305852890e-02 -5.6817346811294556e-01</leafValues></_>
        <_>
          <internalNodes>
            0 -1 135 -2.8122786432504654e-02</internalNodes>
          <leafValues>
            5.0905138254165649e-01 -6.4466431736946106e-02</leafValues></_>
        <_>
          <internalNodes>
            0 -1 82 1.3353097438812256e-01</internalNodes>
          <leafValues>
            -6.4438723027706146e-02 4.6075928211212158e-01</leafValues></_>
        <_>
          <internalNodes>
            0 -1 29 -3.1930819153785706e-02</internalNodes>
          <leafValues>
            3.4248158335685730e-01 -1.0439483076334000e-01</leafValues></_>
        <_>
          <internalNodes>
            0 -1 296 -1.4787063002586365e-02</internalNodes>
          <leafValues>
            3.9032685756683350e-01 -7.6507955789566040e-02</leafValues></_>
        <_>
          <internalNodes>
            0 -1 26 5.3567804396152496e-02</internalNodes>
          <leafValues>
            -5.5518925189971924e-02 5.3945684432983398e-01</leafValues></_>
        <_>
          <internalNodes>
            0 -1 43 -6.7803286947309971e-03</internalNodes>
          <leafValues>
            -7.1732860803604126e-01 5.0685755908489227e-02</leafValues></_>
        <_>
          <internalNodes>
            0 -1 411 5.9531079605221748e-03</internalNodes>
          <leafValues>
            3.5330541431903839e-02 -7.3669654130935669e-01</leafValues></_>
        <_>
          <internalNodes>
            0 -1 171 -4.4286027550697327e-02</internalNodes>
          <leafValues>
            5.7870590686798096e-01 -6.0601435601711273e-02</leafValues></_>
        <_>
          <internalNodes>
            0 -1 10 3.0927900224924088e-02</internalNodes>
          <leafValues>
            -1.4224745333194733e-01 2.3780609667301178e-01</leafValues></_>
        <_>
          <internalNodes>
            0 -1 271 -4.0807086043059826e-03</internalNodes>
          <leafValues>
            -5.5877721309661865e-01 5.3541462868452072e-02</leafValues></_>
        <_>
          <internalNodes>
            0 -1 292 -4.0746670216321945e-02</internalNodes>
          <leafValues>
            5.2231401205062866e-01 -6.4886659383773804e-02</leafValues></_>
        <_>
          <internalNodes>
            0 -1 83 -6.8088378757238388e-03</internalNodes>
          <leafValues>
            -6.1172485351562500e-01 5.5611990392208099e-02</leafValues></_>
        <_>
          <internalNodes>
            0 -1 65 -2.3206549882888794e-01</internalNodes>
          <leafValues>
            -5.3016227483749390e-01 5.0905492156744003e-02</leafValues></_>
        <_>
          <internalNodes>
            0 -1 305 2.9331747442483902e-02</internalNodes>
          <leafValues>
            9.2078842222690582e-02 -3.7871259450912476e-01</leafValues></_></weakClassifiers></_>
    <!-- stage 2 -->
    <_>
      <maxWeakCount>38</maxWeakCount>
      <stageThreshold>-1.2697890996932983e+00</stageThreshold>
      <weakClassifiers>
        <_>
          <internalNodes>
            0 -1 70 1.8939045071601868e-01</internalNodes>
          <leafValues>
            -4.0255221724510193e-01 7.9034584760665894e-01</leafValues></_>
        <_>
          <internalNodes>
            0 -1 96 3.0068319290876389e-02</internalNodes>
          <leafValues>
            -2.5265836715698242e-01 6.4397329092025757e-01</leafValues></_>
        <_>
          <internalNodes>
            0 -1 472 -8.8302567601203918e-03</internalNodes>
          <leafValues>
            3.7371161580085754e-01 -1.9920563697814941e-01</leafValues></_>
        <_>
          <internalNodes>
            0 -1 158 4.8461414873600006e-02</internalNodes>
          <leafValues>
            -1.1962878704071045e-01 4.8207616806030273e-01</leafValues></_>
        <_>
          <internalNodes>
            0 -1 9 -6.0435462743043900e-02</internalNodes>
          <leafValues>
            3.8592007756233215e-01 -2.2269442677497864e-01</leafValues></_>
        <_>
          <internalNodes>
            0 -1 105 -2.4756958708167076e-02</internalNodes>
          <leafValues>
            3.5046100616455078e-01 -1.3059540092945099e-01</leafValues></_>
        <_>
          <internalNodes>
            0 -1 508 -5.5921520106494427e-04</internalNodes>
          <leafValues>
            -2.9843994975090027e-01 1.4879727363586426e-01</leafValues></_>
        <_>
          <internalNodes>
            0 -1 427 2.0324978977441788e-03</internalNodes>
          <leafValues>
            -1.7028737068176270e-01 2.3610857129096985e-01</leafValues></_>
        <_>
          <internalNodes>
            0 -1 230 2.4627245962619781e-02</internalNodes>
          <leafValues>
            -1.1497978866100311e-01 3.5599654912948608e-01</leafValues></_>
        <_>
          <internalNodes>
            0 -1 306 -5.4489653557538986e-02</internalNodes>
          <leafValues>
            4.3793901801109314e-01 -1.0023726522922516e-01</leafValues></_>
        <_>
          <internalNodes>
            0 -1 255 2.5997382402420044e-01</internalNodes>
          <leafValues>
            -8.5931606590747833e-02 4.5825624465942383e-01</leafValues></_>
        <_>
          <internalNodes>
            0 -1 27 3.2625049352645874e-02</internalNodes>
          <leafValues>
            -7.0656247437000275e-02 4.7914469242095947e-01</leafValues></_>
        <_>
          <internalNodes>
            0 -1 264 1.0789205320179462e-02</internalNodes>
          <leafValues>
            -1.3683840632438660e-01 2.8531867265701294e-01</leafValues></_>
        <_>
          <internalNodes>
            0 -1 379 4.3601147830486298e-02</internalNodes>
          <leafValues>
            -8.6406767368316650e-02 4.2403143644332886e-01</leafValues></_>
        <_>
          <internalNodes>
            0 -1 60 -6.1853043735027313e-02</internalNodes>
          <leafValues>
            3.1255567073822021e-01 -1.4237999916076660e-01</leafValues></_>
        <_>
          <internalNodes>
            0 -1 284 5.6653875857591629e-02</internalNodes>
          <leafValues>
            -5.0225589424371719e-02 6.8124270439147949e-01</leafValues></_>
        <_>
          <internalNodes>
            0 -1 476 -4.9104709178209305e-03</internalNodes>
          <leafValues>
            -8.4742629528045654e-01 5.9256780892610550e-02</leafValues></_>
        <_>
          <internalNodes>
            0 -1 491 5.7480596005916595e-03</internalNodes>
          <leafValues>
            3.5198356956243515e-02 -6.8999159336090088e-01</leafValues></_>
        <_>
          <internalNodes>
            0 -1 239 -1.1848973110318184e-02</internalNodes>
          <leafValues>
            3.4156414866447449e-01 -9.7175195813179016e-02</leafValues></_>
        <_>
          <internalNodes>
            0 -1 441 5.5499905720353127e-03</internalNodes>
          <leafValues>
            -1.2760326266288757e-01 3.0614784359931946e-01</leafValues></_>
        <_>
          <internalNodes>
            0 -1 249 2.5499314069747925e-03</internalNodes>
          <leafValues>
            -1.4911426603794098e-01 2.3101241886615753e-01</leafValues></_>
        <_>
          <internalNodes>
            0 -1 163 2.4714903533458710e-01</internalNodes>
          <leafValues>
            -2.6784367859363556e-02 9.0571379661560059e-01</leafValues></_>
        <_>
          <internalNodes>
            0 -1 400 1.6592436004430056e-03</internalNodes>
          <leafValues>
            -9.6045352518558502e-02 3.3744424581527710e-01</leafValues></_>
        <_>
          <internalNodes>
            0 -1 400 -8.7794888531789184e-04</internalNodes>
          <leafValues>
            2.6539877057075500e-01 -1.5525299310684204e-01</leafValues></_>
        <_>
          <internalNodes>
            0 -1 178 1.1058852542191744e-03</internalNodes>
          <leafValues>
            -1.9831109046936035e-01 1.7301216721534729e-01</leafValues></_>
        <_>
          <internalNodes>
            0 -1 234 4.0896813152357936e-04</internalNodes>
          <leafValues>
            -1.8568627536296844e-01 1.8673472106456757e-01</leafValues></_>
        <_>
          <internalNodes>
            0 -1 127 -2.2430781275033951e-02</internalNodes>
          <leafValues>
            4.8780709505081177e-01 -7.9108536243438721e-02</leafValues></_>
        <_>
          <internalNodes>
            0 -1 80 -7.8691411763429642e-03</internalNodes>
          <leafValues>
            -3.9885151386260986e-01 8.7510213255882263e-02</leafValues></_>
        <_>
          <internalNodes>
            0 -1 160 3.7243479490280151e-01</internalNodes>
          <leafValues>
            -6.1512123793363571e-02 5.5320692062377930e-01</leafValues></_>
        <_>
          <internalNodes>
            0 -1 194 1.2900235131382942e-02</internalNodes>
          <leafValues>
            -1.4399716258049011e-01 2.7323478460311890e-01</leafValues></_>
        <_>
          <internalNodes>
            0 -1 506 -1.4242870383895934e-04</internalNodes>
          <leafValues>
            -2.1228714287281036e-01 1.4896431565284729e-01</leafValues></_>
        <_>
          <internalNodes>
            0 -1 439 -1.5424590557813644e-02</internalNodes>
          <leafValues>
            -5.0685817003250122e-01 6.3905805349349976e-02</leafValues></_>
        <_>
          <internalNodes>
            0 -1 108 -7.3141520842909813e-03</internalNodes>
          <leafValues>
            -7.0350015163421631e-01 3.8932349532842636e-02</leafValues></_>
        <_>
          <internalNodes>
            0 -1 156 1.1064541526138783e-02</internalNodes>
          <leafValues>
            -1.2403983622789383e-01 2.5129014253616333e-01</leafValues></_>
        <_>
          <internalNodes>
            0 -1 46 4.4490776956081390e-02</internalNodes>
          <leafValues>
            -8.1516921520233154e-02 4.1014611721038818e-01</leafValues></_>
        <_>
          <internalNodes>
            0 -1 461 3.0888583511114120e-02</internalNodes>
          <leafValues>
            -4.0868420153856277e-02 6.0610038042068481e-01</leafValues></_>
        <_>
          <internalNodes>
            0 -1 487 4.2135221883654594e-03</internalNodes>
          <leafValues>
            8.0415852367877960e-02 -4.1077211499214172e-01</leafValues></_>
        <_>
          <internalNodes>
            0 -1 410 8.8103422895073891e-03</internalNodes>
          <leafValues>
            -9.4634175300598145e-02 2.9585340619087219e-01</leafValues></_></weakClassifiers></_>
    <!-- stage 3 -->
    <_>
      <maxWeakCount>47</maxWeakCount>
      <stageThreshold>-1.2157353162765503e+00</stageThreshold>
      <weakClassifiers>
        <_>
          <internalNodes>
            0 -1 67 7.1227654814720154e-02</internalNodes>
          <leafValues>
            -2.4681933224201202e-01 7.8303748369216919e-01</leafValues></_>
        <_>
          <internalNodes>
            0 -1 346 -7.6843976974487305e-02</internalNodes>
          <leafValues>
            5.0095319747924805e-01 -3.1079933047294617e-01</leafValues></_>
        <_>
          <internalNodes>
            0 -1 262 2.5591980665922165e-02</internalNodes>
          <leafValues>
            -2.0325960218906403e-01 4.7953334450721741e-01</leafValues></_>
        <_>
          <internalNodes>
            0 -1 208 5.3711596876382828e-02</internalNodes>
          <leafValues>
            -1.5908139944076538e-01 4.3742573261260986e-01</leafValues></_>
        <_>
          <internalNodes>
            0 -1 17 -2.2572748363018036e-02</internalNodes>
          <leafValues>
            2.8063264489173889e-01 -2.4907708168029785e-01</leafValues></_>
        <_>
          <internalNodes>
            0 -1 45 -1.4860400557518005e-01</internalNodes>
          <leafValues>
            -4.6074154973030090e-01 1.1009937524795532e-01</leafValues></_>
        <_>
          <internalNodes>
            0 -1 374 -3.4356652759015560e-03</internalNodes>
          <leafValues>
            -6.2270873785018921e-01 5.3580064326524734e-02</leafValues></_>
        <_>
          <internalNodes>
            0 -1 416 -1.4799255877733231e-02</internalNodes>
          <leafValues>
            3.7128284573554993e-01 -1.0010922700166702e-01</leafValues></_>
        <_>
          <internalNodes>
            0 -1 258 2.3938056081533432e-02</internalNodes>
          <leafValues>
            -9.9151827394962311e-02 3.5037171840667725e-01</leafValues></_>
        <_>
          <internalNodes>
            0 -1 450 3.0407242476940155e-02</internalNodes>
          <leafValues>
            -8.7706312537193298e-02 3.8244619965553284e-01</leafValues></_>
        <_>
          <internalNodes>
            0 -1 5 1.5341499447822571e-01</internalNodes>
          <leafValues>
            -5.8154959231615067e-02 5.7693809270858765e-01</leafValues></_>
        <_>
          <internalNodes>
            0 -1 31 -5.9998072683811188e-02</internalNodes>
          <leafValues>
            4.8651382327079773e-01 -8.8238142430782318e-02</leafValues></_>
        <_>
          <internalNodes>
            0 -1 462 4.9310913309454918e-03</internalNodes>
          <leafValues>
            -1.2010500580072403e-01 2.6337105035781860e-01</leafValues></_>
        <_>
          <internalNodes>
            0 -1 288 -3.0083289369940758e-02</internalNodes>
          <leafValues>
            5.6376880407333374e-01 -6.2819190323352814e-02</leafValues></_>
        <_>
          <internalNodes>
            0 -1 145 6.8265781737864017e-03</internalNodes>
          <leafValues>
            4.5339975506067276e-02 -7.2277224063873291e-01</leafValues></_>
        <_>
          <internalNodes>
            0 -1 493 2.0286589860916138e-02</internalNodes>
          <leafValues>
            -1.0842666029930115e-01 2.6943540573120117e-01</leafValues></_>
        <_>
          <internalNodes>
            0 -1 198 3.3837279677391052e-01</internalNodes>
          <leafValues>
            -8.3018861711025238e-02 3.3318150043487549e-01</leafValues></_>
        <_>
          <internalNodes>
            0 -1 402 -9.6803437918424606e-03</internalNodes>
          <leafValues>
            3.5445711016654968e-01 -8.7826877832412720e-02</leafValues></_>
        <_>
          <internalNodes>
            0 -1 284 -6.1107156798243523e-03</internalNodes>
          <leafValues>
            2.6987612247467041e-01 -1.1783162504434586e-01</leafValues></_>
        <_>
          <internalNodes>
            0 -1 361 -5.4640276357531548e-03</internalNodes>
          <leafValues>
            2.9222643375396729e-01 -1.4067827165126801e-01</leafValues></_>
        <_>
          <internalNodes>
            0 -1 304 -2.7238182723522186e-02</internalNodes>
          <leafValues>
            3.3462056517601013e-01 -9.1210260987281799e-02</leafValues></_>
        <_>
          <internalNodes>
            0 -1 355 -2.8296522796154022e-02</internalNodes>
          <leafValues>
            1.9577872753143311e-01 -1.6554605960845947e-01</leafValues></_>
        <_>
          <internalNodes>
            0 -1 236 9.8454952239990234e-04</internalNodes>
          <leafValues>
            -1.6841600835323334e-01 1.8674941360950470e-01</leafValues></_>
        <_>
          <internalNodes>
            0 -1 23 7.0995420217514038e-02</internalNodes>
          <leafValues>
            -5.2057169377803802e-02 5.8706128597259521e-01</leafValues></_>
        <_>
          <internalNodes>
            0 -1 323 6.7443842999637127e-03</internalNodes>
          <leafValues>
            -1.6274432837963104e-01 1.8359684944152832e-01</leafValues></_>
        <_>
          <internalNodes>
            0 -1 182 1.6188747249543667e-03</internalNodes>
          <leafValues>
            -1.5274994075298309e-01 1.9431133568286896e-01</leafValues></_>
        <_>
          <internalNodes>
            0 -1 134 -1.2701293453574181e-02</internalNodes>
          <leafValues>
            2.9183951020240784e-01 -1.0420891642570496e-01</leafValues></_>
        <_>
          <internalNodes>
            0 -1 444 -4.2312447912991047e-03</internalNodes>
          <leafValues>
            -6.0128051042556763e-01 5.5640850216150284e-02</leafValues></_>
        <_>
          <internalNodes>
            0 -1 388 6.9505367428064346e-03</internalNodes>
          <leafValues>
            2.9517093673348427e-02 -8.1462103128433228e-01</leafValues></_>
        <_>
          <internalNodes>
            0 -1 109 6.2456661835312843e-03</internalNodes>
          <leafValues>
            3.0909039080142975e-02 -7.3385226726531982e-01</leafValues></_>
        <_>
          <internalNodes>
            0 -1 504 -5.6451959535479546e-03</internalNodes>
          <leafValues>
            -5.5941313505172729e-01 3.8712587207555771e-02</leafValues></_>
        <_>
          <internalNodes>
            0 -1 15 3.8334157317876816e-02</internalNodes>
          <leafValues>
            5.6063886731863022e-02 -4.2724257707595825e-01</leafValues></_>
        <_>
          <internalNodes>
            0 -1 329 -2.9623348265886307e-02</internalNodes>
          <leafValues>
            5.1193213462829590e-01 -5.6516103446483612e-02</leafValues></_>
        <_>
          <internalNodes>
            0 -1 242 1.8916856497526169e-02</internalNodes>
          <leafValues>
            -8.0645695328712463e-02 3.2908961176872253e-01</leafValues></_>
        <_>
          <internalNodes>
            0 -1 412 6.7893676459789276e-03</internalNodes>
          <leafValues>
            2.7001488953828812e-02 -9.7733801603317261e-01</leafValues></_>
        <_>
          <internalNodes>
            0 -1 335 -4.3289665132761002e-02</internalNodes>
          <leafValues>
            5.3439629077911377e-01 -5.7641584426164627e-02</leafValues></_>
        <_>
          <internalNodes>
            0 -1 233 -1.2303771078586578e-01</internalNodes>
          <leafValues>
            -6.0833942890167236e-01 5.5396225303411484e-02</leafValues></_>
        <_>
          <internalNodes>
            0 -1 358 -1.2842522701248527e-03</internalNodes>
          <leafValues>
            2.1594825387001038e-01 -1.5072691440582275e-01</leafValues></_>
        <_>
          <internalNodes>
            0 -1 154 1.9887436181306839e-02</internalNodes>
          <leafValues>
            4.6432040631771088e-02 -5.2637660503387451e-01</leafValues></_>
        <_>
          <internalNodes>
            0 -1 66 2.0240774378180504e-02</internalNodes>
          <leafValues>
            6.0196965932846069e-02 -4.3415963649749756e-01</leafValues></_>
        <_>
          <internalNodes>
            0 -1 148 3.0980412848293781e-03</internalNodes>
          <leafValues>
            6.3109964132308960e-02 -3.8673025369644165e-01</leafValues></_>
        <_>
          <internalNodes>
            0 -1 440 -4.4143851846456528e-03</internalNodes>
          <leafValues>
            -5.7220327854156494e-01 3.7100631743669510e-02</leafValues></_>
        <_>
          <internalNodes>
            0 -1 437 -2.1984579507261515e-03</internalNodes>
          <leafValues>
            2.2980181872844696e-01 -1.1066482961177826e-01</leafValues></_>
        <_>
          <internalNodes>
            0 -1 430 -4.1305529884994030e-03</internalNodes>
          <leafValues>
            2.5555956363677979e-01 -1.1504413932561874e-01</leafValues></_>
        <_>
          <internalNodes>
            0 -1 338 -7.3665000498294830e-02</internalNodes>
          <leafValues>
            -5.2265483140945435e-01 5.6872446089982986e-02</leafValues></_>
        <_>
          <internalNodes>
            0 -1 270 3.0304931569844484e-03</internalNodes>
          <leafValues>
            -1.4736387133598328e-01 1.7927493155002594e-01</leafValues></_>
        <_>
          <internalNodes>
            0 -1 403 -1.4325451105833054e-02</internalNodes>
          <leafValues>
            2.8349316120147705e-01 -1.0441592335700989e-01</leafValues></_></weakClassifiers></_>
    <!-- stage 4 -->
    <_>
      <maxWeakCount>60</maxWeakCount>
      <stageThreshold>-1.1791223287582397e+00</stageThreshold>
      <weakClassifiers>
        <_>
          <internalNodes>
            0 -1 47 2.2376425564289093e-01</internalNodes>
          <leafValues>
            -2.7431693673133850e-01 7.4981272220611572e-01</leafValues></_>
        <_>
          <internalNodes>
            0 -1 159 1.4406582713127136e-01</internalNodes>
          <leafValues>
            -1.8014162778854370e-01 5.9669727087020874e-01</leafValues></_>
        <_>
          <internalNodes>
            0 -1 478 -4.8988354392349720e-03</internalNodes>
          <leafValues>
            3.4548529982566833e-01 -2.4652451276779175e-01</leafValues></_>
        <_>
          <internalNodes>
            0 -1 406 1.9259154796600342e-02</internalNodes>
          <leafValues>
            -1.6605426371097565e-01 3.5620459914207458e-01</leafValues></_>
        <_>
          <internalNodes>
            0 -1 13 -1.1691345274448395e-01</internalNodes>
          <leafValues>
            4.6156576275825500e-01 -1.5648122131824493e-01</leafValues></_>
        <_>
          <internalNodes>
            0 -1 132 3.3948170021176338e-03</internalNodes>
          <leafValues>
            -1.4727361500263214e-01 3.3461320400238037e-01</leafValues></_>
        <_>
          <internalNodes>
            0 -1 192 3.4193962812423706e-02</internalNodes>
          <leafValues>
            -1.3432294130325317e-01 3.6113503575325012e-01</leafValues></_>
        <_>
          <internalNodes>
            0 -1 164 2.3892937228083611e-02</internalNodes>
          <leafValues>
            -1.6289238631725311e-01 2.4664305150508881e-01</leafValues></_>
        <_>
          <internalNodes>
            0 -1 366 -3.5595703870058060e-02</internalNodes>
          <leafValues>
            2.0414549112319946e-01 -1.6902107000350952e-01</leafValues></_>
        <_>
          <internalNodes>
            0 -1 37 -6.4741402864456177e-02</internalNodes>
          <leafValues>
            2.8817626833915710e-01 -1.4364166557788849e-01</leafValues></_>
        <_>
          <internalNodes>
            0 -1 257 4.7174751758575439e-02</internalNodes>
          <leafValues>
            -9.0466149151325226e-02 3.7224522233009338e-01</leafValues></_>
        <_>
          <internalNodes>
            0 -1 397 6.2519907951354980e-02</internalNodes>
          <leafValues>
            -7.3087342083454132e-02 4.6725115180015564e-01</leafValues></_>
        <_>
          <internalNodes>
            0 -1 342 1.1375220492482185e-02</internalNodes>
          <leafValues>
            -9.2458710074424744e-02 3.2202720642089844e-01</leafValues></_>
        <_>
          <internalNodes>
            0 -1 128 9.5837870612740517e-03</internalNodes>
          <leafValues>
            7.6500505208969116e-02 -4.0729838609695435e-01</leafValues></_>
        <_>
          <internalNodes>
            0 -1 173 3.8613885641098022e-02</internalNodes>
          <leafValues>
            3.7514440715312958e-02 -8.0026113986968994e-01</leafValues></_>
        <_>
          <internalNodes>
            0 -1 383 5.0520347431302071e-03</internalNodes>
          <leafValues>
            4.0925599634647369e-02 -5.1292133331298828e-01</leafValues></_>
        <_>
          <internalNodes>
            0 -1 424 -3.3007927238941193e-02</internalNodes>
          <leafValues>
            4.4796746969223022e-01 -6.6734343767166138e-02</leafValues></_>
        <_>
          <internalNodes>
            0 -1 359 -9.7552370280027390e-03</internalNodes>
          <leafValues>
            3.5595613718032837e-01 -8.1368587911128998e-02</leafValues></_>
        <_>
          <internalNodes>
            0 -1 364 -1.1925267055630684e-02</internalNodes>
          <leafValues>
            3.8799771666526794e-01 -7.0282250642776489e-02</leafValues></_>
        <_>
          <internalNodes>
            0 -1 289 -1.7591165378689766e-02</internalNodes>
          <leafValues>
            2.1913342177867889e-01 -1.5299195051193237e-01</leafValues></_>
        <_>
          <internalNodes>
            0 -1 451 -3.5395257174968719e-02</internalNodes>
          <leafValues>
            2.9226675629615784e-01 -9.6172526478767395e-02</leafValues></_>
        <_>
          <internalNodes>
            0 -1 495 -3.3300858922302723e-03</internalNodes>
          <leafValues>
            -5.2686423063278198e-01 5.0074871629476547e-02</leafValues></_>
        <_>
          <internalNodes>
            0 -1 202 -1.7262201011180878e-01</internalNodes>
          <leafValues>
            5.9673070907592773e-01 -4.3431021273136139e-02</leafValues></_>
        <_>
          <internalNodes>
            0 -1 438 1.1551479808986187e-02</internalNodes>
          <leafValues>
            -8.2614675164222717e-02 3.0152556300163269e-01</leafValues></_>
        <_>
          <internalNodes>
            0 -1 229 4.9781031906604767e-02</internalNodes>
          <leafValues>
            -3.7929840385913849e-02 6.9714349508285522e-01</leafValues></_>
        <_>
          <internalNodes>
            0 -1 217 1.6148146241903305e-03</internalNodes>
          <leafValues>
            -1.7965038120746613e-01 1.4999507367610931e-01</leafValues></_>
        <_>
          <internalNodes>
            0 -1 261 1.0422332212328911e-02</internalNodes>
          <leafValues>
            -1.2206694483757019e-01 2.0738798379898071e-01</leafValues></_>
        <_>
          <internalNodes>
            0 -1 178 9.1336009791120887e-04</internalNodes>
          <leafValues>
            -1.8388354778289795e-01 1.4859662950038910e-01</leafValues></_>
        <_>
          <internalNodes>
            0 -1 282 -2.2979544475674629e-02</internalNodes>
          <leafValues>
            -6.4058601856231689e-01 3.9269652217626572e-02</leafValues></_>
        <_>
          <internalNodes>
            0 -1 115 -1.5426011383533478e-01</internalNodes>
          <leafValues>
            -2.5718295574188232e-01 9.1111525893211365e-02</leafValues></_>
        <_>
          <internalNodes>
            0 -1 39 9.9691038485616446e-05</internalNodes>
          <leafValues>
            1.3198244571685791e-01 -1.8325193226337433e-01</leafValues></_>
        <_>
          <internalNodes>
            0 -1 212 9.1416966170072556e-03</internalNodes>
          <leafValues>
            4.2016521096229553e-02 -5.3270435333251953e-01</leafValues></_>
        <_>
          <internalNodes>
            0 -1 336 2.7769036591053009e-02</internalNodes>
          <leafValues>
            -7.6009728014469147e-02 3.1622803211212158e-01</leafValues></_>
        <_>
          <internalNodes>
            0 -1 76 -2.2234357893466949e-02</internalNodes>
          <leafValues>
            1.3897016644477844e-01 -1.7216634750366211e-01</leafValues></_>
        <_>
          <internalNodes>
            0 -1 44 -6.3699246384203434e-03</internalNodes>
          <leafValues>
            2.2135293483734131e-01 -1.1016665399074554e-01</leafValues></_>
        <_>
          <internalNodes>
            0 -1 482 -6.4957286231219769e-03</internalNodes>
          <leafValues>
            -7.5845295190811157e-01 3.2706186175346375e-02</leafValues></_>
        <_>
          <internalNodes>
            0 -1 20 1.0168458521366119e-01</internalNodes>
          <leafValues>
            -4.4834084808826447e-02 5.8784276247024536e-01</leafValues></_>
        <_>
          <internalNodes>
            0 -1 273 2.8483727946877480e-02</internalNodes>
          <leafValues>
            -5.8444362133741379e-02 4.0798795223236084e-01</leafValues></_>
        <_>
          <internalNodes>
            0 -1 133 9.9737644195556641e-03</internalNodes>
          <leafValues>
            5.6479375809431076e-02 -4.4910001754760742e-01</leafValues></_>
        <_>
          <internalNodes>
            0 -1 338 -8.2156479358673096e-02</internalNodes>
          <leafValues>
            -6.7599833011627197e-01 2.9270436614751816e-02</leafValues></_>
        <_>
          <internalNodes>
            0 -1 228 -1.5768568962812424e-02</internalNodes>
          <leafValues>
            3.8385653495788574e-01 -6.1577826738357544e-02</leafValues></_>
        <_>
          <internalNodes>
            0 -1 104 7.0097539573907852e-03</internalNodes>
          <leafValues>
            -9.9040575325489044e-02 2.4245186150074005e-01</leafValues></_>
        <_>
          <internalNodes>
            0 -1 244 4.2574913240969181e-03</internalNodes>
          <leafValues>
            3.4785285592079163e-02 -6.6913557052612305e-01</leafValues></_>
        <_>
          <internalNodes>
            0 -1 86 1.8479961901903152e-02</internalNodes>
          <leafValues>
            6.8777360022068024e-02 -3.1325221061706543e-01</leafValues></_>
        <_>
          <internalNodes>
            0 -1 90 9.2742237029597163e-05</internalNodes>
          <leafValues>
            1.2485443055629730e-01 -1.8344891071319580e-01</leafValues></_>
        <_>
          <internalNodes>
            0 -1 54 4.3164715170860291e-03</internalNodes>
          <leafValues>
            3.4076042473316193e-02 -6.8227803707122803e-01</leafValues></_>
        <_>
          <internalNodes>
            0 -1 69 2.1352539956569672e-01</internalNodes>
          <leafValues>
            -3.1468603760004044e-02 8.1881791353225708e-01</leafValues></_>
        <_>
          <internalNodes>
            0 -1 131 -8.9407339692115784e-03</internalNodes>
          <leafValues>
            -8.7524944543838501e-01 3.0253291130065918e-02</leafValues></_>
        <_>
          <internalNodes>
            0 -1 121 -1.9750963896512985e-02</internalNodes>
          <leafValues>
            3.3279278874397278e-01 -6.8480238318443298e-02</leafValues></_>
        <_>
          <internalNodes>
            0 -1 354 2.5411646813154221e-02</internalNodes>
          <leafValues>
            -4.9033574759960175e-02 3.8689363002777100e-01</leafValues></_>
        <_>
          <internalNodes>
            0 -1 433 2.1674387156963348e-02</internalNodes>
          <leafValues>
            -4.8091255128383636e-02 4.6236312389373779e-01</leafValues></_>
        <_>
          <internalNodes>
            0 -1 300 2.0121622830629349e-02</internalNodes>
          <leafValues>
            4.0790122002363205e-02 -6.0834604501724243e-01</leafValues></_>
        <_>
          <internalNodes>
            0 -1 259 -8.4776468575000763e-02</internalNodes>
          <leafValues>
            -3.0164790153503418e-01 6.6386520862579346e-02</leafValues></_>
        <_>
          <internalNodes>
            0 -1 40 -3.9359545707702637e-01</internalNodes>
          <leafValues>
            6.5006560087203979e-01 -4.9691915512084961e-02</leafValues></_>
        <_>
          <internalNodes>
            0 -1 500 2.7720062062144279e-03</internalNodes>
          <leafValues>
            -1.1940825730562210e-01 2.0003011822700500e-01</leafValues></_>
        <_>
          <internalNodes>
            0 -1 419 -1.4323037117719650e-02</internalNodes>
          <leafValues>
            4.4605964422225952e-01 -4.8498962074518204e-02</leafValues></_>
        <_>
          <internalNodes>
            0 -1 380 1.4302319847047329e-02</internalNodes>
          <leafValues>
            -1.6359122097492218e-01 1.6859988868236542e-01</leafValues></_>
        <_>
          <internalNodes>
            0 -1 382 -9.2477742582559586e-03</internalNodes>
          <leafValues>
            2.2720167040824890e-01 -9.7602069377899170e-02</leafValues></_>
        <_>
          <internalNodes>
            0 -1 349 -1.3944886159151793e-03</internalNodes>
          <leafValues>
            2.1575663983821869e-01 -1.0924899578094482e-01</leafValues></_>
        <_>
          <internalNodes>
            0 -1 340 8.8610835373401642e-03</internalNodes>
          <leafValues>
            3.0807111412286758e-02 -7.8245651721954346e-01</leafValues></_></weakClassifiers></_>
    <!-- stage 5 -->
    <_>
      <maxWeakCount>63</maxWeakCount>
      <stageThreshold>-1.1612610816955566e+00</stageThreshold>
      <weakClassifiers>
        <_>
          <internalNodes>
            0 -1 48 2.8489381074905396e-01</internalNodes>
          <leafValues>
            -1.6157636046409607e-01 7.4008095264434814e-01</leafValues></_>
        <_>
          <internalNodes>
            0 -1 203 4.5321058481931686e-02</internalNodes>
          <leafValues>
            -1.7648078501224518e-01 5.6480467319488525e-01</leafValues></_>
        <_>
          <internalNodes>
            0 -1 463 -1.1866385117173195e-02</internalNodes>
          <leafValues>
            2.9744368791580200e-01 -2.9446679353713989e-01</leafValues></_>
        <_>
          <internalNodes>
            0 -1 267 1.9305888563394547e-02</internalNodes>
          <leafValues>
            -2.2111116349697113e-01 2.8969088196754456e-01</leafValues></_>
        <_>
          <internalNodes>
            0 -1 89 -1.2728872895240784e-01</internalNodes>
          <leafValues>
            4.8717552423477173e-01 -9.4901114702224731e-02</leafValues></_>
        <_>
          <internalNodes>
            0 -1 181 6.5356137929484248e-04</internalNodes>
          <leafValues>
            -2.0334720611572266e-01 1.8544934689998627e-01</leafValues></_>
        <_>
          <internalNodes>
            0 -1 258 2.1592454984784126e-02</internalNodes>
          <leafValues>
            -1.5366695821285248e-01 3.2823029160499573e-01</leafValues></_>
        <_>
          <internalNodes>
            0 -1 227 2.7301204390823841e-03</internalNodes>
          <leafValues>
            -1.4683026075363159e-01 2.3800513148307800e-01</leafValues></_>
        <_>
          <internalNodes>
            0 -1 291 5.6140627712011337e-03</internalNodes>
          <leafValues>
            -1.7908819019794464e-01 3.8269469141960144e-01</leafValues></_>
        <_>
          <internalNodes>
            0 -1 147 3.5083945840597153e-02</internalNodes>
          <leafValues>
            -8.5556805133819580e-02 4.0915378928184509e-01</leafValues></_>
        <_>
          <internalNodes>
            0 -1 153 3.3332943916320801e-01</internalNodes>
          <leafValues>
            -8.9273765683174133e-02 3.4664079546928406e-01</leafValues></_>
        <_>
          <internalNodes>
            0 -1 453 3.8698218762874603e-02</internalNodes>
          <leafValues>
            -1.3725510239601135e-01 2.6619601249694824e-01</leafValues></_>
        <_>
          <internalNodes>
            0 -1 280 -4.4505940750241280e-03</internalNodes>
          <leafValues>
            -6.3063842058181763e-01 5.2934009581804276e-02</leafValues></_>
        <_>
          <internalNodes>
            0 -1 485 -5.2193677984178066e-03</internalNodes>
          <leafValues>
            -5.9753537178039551e-01 4.5206129550933838e-02</leafValues></_>
        <_>
          <internalNodes>
            0 -1 443 1.4550318010151386e-03</internalNodes>
          <leafValues>
            -9.7450345754623413e-02 3.0502846837043762e-01</leafValues></_>
        <_>
          <internalNodes>
            0 -1 448 -4.7385040670633316e-03</internalNodes>
          <leafValues>
            -6.4896416664123535e-01 3.9592508226633072e-02</leafValues></_>
        <_>
          <internalNodes>
            0 -1 445 -4.6550612896680832e-03</internalNodes>
          <leafValues>
            -6.9764649868011475e-01 3.3540021628141403e-02</leafValues></_>
        <_>
          <internalNodes>
            0 -1 316 1.2785140424966812e-02</internalNodes>
          <leafValues>
            3.9454039186239243e-02 -5.4542350769042969e-01</leafValues></_>
        <_>
          <internalNodes>
            0 -1 232 -9.8099812865257263e-02</internalNodes>
          <leafValues>
            -6.3101035356521606e-01 3.6183677613735199e-02</leafValues></_>
        <_>
          <internalNodes>
            0 -1 401 -3.3030379563570023e-03</internalNodes>
          <leafValues>
            2.2732821106910706e-01 -1.2735067307949066e-01</leafValues></_>
        <_>
          <internalNodes>
            0 -1 454 8.5343234241008759e-03</internalNodes>
          <leafValues>
            2.9400948435068130e-02 -8.6608970165252686e-01</leafValues></_>
        <_>
          <internalNodes>
            0 -1 483 -7.1671651676297188e-03</internalNodes>
          <leafValues>
            -6.6291826963424683e-01 2.8591897338628769e-02</leafValues></_>
        <_>
          <internalNodes>
            0 -1 431 1.9832272082567215e-03</internalNodes>
          <leafValues>
            -1.4871297776699066e-01 1.8167547881603241e-01</leafValues></_>
        <_>
          <internalNodes>
            0 -1 486 -1.0829911334440112e-03</internalNodes>
          <leafValues>
            -1.8519802391529083e-01 1.2293610721826553e-01</leafValues></_>
        <_>
          <internalNodes>
            0 -1 100 -7.5623793527483940e-03</internalNodes>
          <leafValues>
            -6.3458758592605591e-01 3.6681495606899261e-02</leafValues></_>
        <_>
          <internalNodes>
            0 -1 55 -4.3142691254615784e-02</internalNodes>
          <leafValues>
            2.7375143766403198e-01 -8.7807737290859222e-02</leafValues></_>
        <_>
          <internalNodes>
            0 -1 130 2.1164328791201115e-03</internalNodes>
          <leafValues>
            -1.1973422765731812e-01 2.3176921904087067e-01</leafValues></_>
        <_>
          <internalNodes>
            0 -1 35 8.9580898929852992e-05</internalNodes>
          <leafValues>
            1.1694882065057755e-01 -1.8551379442214966e-01</leafValues></_>
        <_>
          <internalNodes>
            0 -1 278 -1.3320825994014740e-01</internalNodes>
          <leafValues>
            -7.3452740907669067e-01 3.1819444149732590e-02</leafValues></_>
        <_>
          <internalNodes>
            0 -1 116 1.5625630319118500e-01</internalNodes>
          <leafValues>
            6.3666269183158875e-02 -3.0947074294090271e-01</leafValues></_>
        <_>
          <internalNodes>
            0 -1 101 6.0794213786721230e-03</internalNodes>
          <leafValues>
            3.7735246121883392e-02 -6.5659892559051514e-01</leafValues></_>
        <_>
          <internalNodes>
            0 -1 432 7.6113450340926647e-03</internalNodes>
          <leafValues>
            -1.0114070773124695e-01 2.1770685911178589e-01</leafValues></_>
        <_>
          <internalNodes>
            0 -1 345 3.4949935972690582e-02</internalNodes>
          <leafValues>
            -1.0415787249803543e-01 2.4480587244033813e-01</leafValues></_>
        <_>
          <internalNodes>
            0 -1 231 9.6396267414093018e-02</internalNodes>
          <leafValues>
            3.1347762793302536e-02 -8.5534703731536865e-01</leafValues></_>
        <_>
          <internalNodes>
            0 -1 235 3.5611179191619158e-03</internalNodes>
          <leafValues>
            4.0433350950479507e-02 -4.7730699181556702e-01</leafValues></_>
        <_>
          <internalNodes>
            0 -1 422 -1.4428107067942619e-02</internalNodes>
          <leafValues>
            2.8165870904922485e-01 -8.0319911241531372e-02</leafValues></_>
        <_>
          <internalNodes>
            0 -1 222 9.3407649546861649e-03</internalNodes>
          <leafValues>
            -8.3038903772830963e-02 2.9201760888099670e-01</leafValues></_>
        <_>
          <internalNodes>
            0 -1 22 1.4754086732864380e-01</internalNodes>
          <leafValues>
            -3.8624230772256851e-02 5.3623789548873901e-01</leafValues></_>
        <_>
          <internalNodes>
            0 -1 187 6.9429124705493450e-03</internalNodes>
          <leafValues>
            3.5083055496215820e-02 -6.3098293542861938e-01</leafValues></_>
        <_>
          <internalNodes>
            0 -1 219 1.9698638468980789e-02</internalNodes>
          <leafValues>
            -7.2319746017456055e-02 3.0129566788673401e-01</leafValues></_>
        <_>
          <internalNodes>
            0 -1 295 4.8687802627682686e-03</internalNodes>
          <leafValues>
            4.2861562222242355e-02 -5.6402343511581421e-01</leafValues></_>
        <_>
          <internalNodes>
            0 -1 226 -5.5852802470326424e-03</internalNodes>
          <leafValues>
            -7.1543318033218384e-01 2.4524092674255371e-02</leafValues></_>
        <_>
          <internalNodes>
            0 -1 433 2.5937557220458984e-02</internalNodes>
          <leafValues>
            -4.2499508708715439e-02 5.5892258882522583e-01</leafValues></_>
        <_>
          <internalNodes>
            0 -1 290 -1.5596221201121807e-03</internalNodes>
          <leafValues>
            1.8031950294971466e-01 -1.1334642767906189e-01</leafValues></_>
        <_>
          <internalNodes>
            0 -1 234 8.9636566117405891e-03</internalNodes>
          <leafValues>
            2.2717576473951340e-02 -7.6250672340393066e-01</leafValues></_>
        <_>
          <internalNodes>
            0 -1 41 1.9953459501266479e-02</internalNodes>
          <leafValues>
            3.0428187921643257e-02 -5.6415009498596191e-01</leafValues></_>
        <_>
          <internalNodes>
            0 -1 189 3.3822908997535706e-02</internalNodes>
          <leafValues>
            2.3723484948277473e-02 -7.5225675106048584e-01</leafValues></_>
        <_>
          <internalNodes>
            0 -1 287 -7.6802689582109451e-03</internalNodes>
          <leafValues>
            2.4436721205711365e-01 -8.8790886104106903e-02</leafValues></_>
        <_>
          <internalNodes>
            0 -1 272 4.3432638049125671e-03</internalNodes>
          <leafValues>
            -1.5066906809806824e-01 1.7344416677951813e-01</leafValues></_>
        <_>
          <internalNodes>
            0 -1 56 4.1973972693085670e-03</internalNodes>
          <leafValues>
            3.1434476375579834e-02 -6.3369953632354736e-01</leafValues></_>
        <_>
          <internalNodes>
            0 -1 207 7.3673322796821594e-02</internalNodes>
          <leafValues>
            -4.4151049107313156e-02 5.0009280443191528e-01</leafValues></_>
        <_>
          <internalNodes>
            0 -1 224 -4.9342047423124313e-02</internalNodes>
          <leafValues>
            1.6558560729026794e-01 -1.2099049240350723e-01</leafValues></_>
        <_>
          <internalNodes>
            0 -1 434 -2.5535164400935173e-02</internalNodes>
          <leafValues>
            3.2971262931823730e-01 -6.9813653826713562e-02</leafValues></_>
        <_>
          <internalNodes>
            0 -1 6 -4.6446532011032104e-02</internalNodes>
          <leafValues>
            -3.2269969582557678e-01 5.7826228439807892e-02</leafValues></_>
        <_>
          <internalNodes>
            0 -1 507 -6.1914528487250209e-05</internalNodes>
          <leafValues>
            -1.5958768129348755e-01 1.2394813448190689e-01</leafValues></_>
        <_>
          <internalNodes>
            0 -1 505 -2.2132466547191143e-03</internalNodes>
          <leafValues>
            -1.6332484781742096e-01 1.2756624817848206e-01</leafValues></_>
        <_>
          <internalNodes>
            0 -1 473 -1.5300641534850001e-03</internalNodes>
          <leafValues>
            1.4440445601940155e-01 -1.5615238249301910e-01</leafValues></_>
        <_>
          <internalNodes>
            0 -1 125 8.0623831599950790e-03</internalNodes>
          <leafValues>
            1.7674395814538002e-02 -9.7716927528381348e-01</leafValues></_>
        <_>
          <internalNodes>
            0 -1 125 2.2906279191374779e-03</internalNodes>
          <leafValues>
            -9.7603641450405121e-02 2.1697729825973511e-01</leafValues></_>
        <_>
          <internalNodes>
            0 -1 389 6.9589060731232166e-03</internalNodes>
          <leafValues>
            2.7955295518040657e-02 -5.9541881084442139e-01</leafValues></_>
        <_>
          <internalNodes>
            0 -1 328 6.6160294227302074e-04</internalNodes>
          <leafValues>
            -1.4171762764453888e-01 1.5524660050868988e-01</leafValues></_>
        <_>
          <internalNodes>
            0 -1 119 2.9635936021804810e-02</internalNodes>
          <leafValues>
            -5.6461095809936523e-02 3.8952851295471191e-01</leafValues></_>
        <_>
          <internalNodes>
            0 -1 36 -2.8853711485862732e-01</internalNodes>
          <leafValues>
            6.1327010393142700e-01 -2.7629476040601730e-02</leafValues></_></weakClassifiers></_>
    <!-- stage 6 -->
    <_>
      <maxWeakCount>70</maxWeakCount>
      <stageThreshold>-1.1301567554473877e+00</stageThreshold>
      <weakClassifiers>
        <_>
          <internalNodes>
            0 -1 455 -2.7138821780681610e-02</internalNodes>
          <leafValues>
            6.0856866836547852e-01 -2.6427060365676880e-01</leafValues></_>
        <_>
          <internalNodes>
            0 -1 199 4.2264521121978760e-02</internalNodes>
          <leafValues>
            -2.5565823912620544e-01 5.3602260351181030e-01</leafValues></_>
        <_>
          <internalNodes>
            0 -1 293 5.3961962461471558e-02</internalNodes>
          <leafValues>
            -1.4031870663166046e-01 5.2569168806076050e-01</leafValues></_>
        <_>
          <internalNodes>
            0 -1 404 1.1347461491823196e-02</internalNodes>
          <leafValues>
            -1.6473515331745148e-01 3.0092024803161621e-01</leafValues></_>
        <_>
          <internalNodes>
            0 -1 112 5.0517998635768890e-02</internalNodes>
          <leafValues>
            -1.2577614188194275e-01 3.9770963788032532e-01</leafValues></_>
        <_>
          <internalNodes>
            0 -1 68 5.6302249431610107e-02</internalNodes>
          <leafValues>
            -9.5537804067134857e-02 4.2004531621932983e-01</leafValues></_>
        <_>
          <internalNodes>
            0 -1 415 4.0818154811859131e-02</internalNodes>
          <leafValues>
            5.1399823278188705e-02 -7.1725773811340332e-01</leafValues></_>
        <_>
          <internalNodes>
            0 -1 74 -2.0810130983591080e-02</internalNodes>
          <leafValues>
            -5.8934044837951660e-01 4.5148458331823349e-02</leafValues></_>
        <_>
          <internalNodes>
            0 -1 237 3.3432650379836559e-03</internalNodes>
          <leafValues>
            -1.6920156776905060e-01 1.8931376934051514e-01</leafValues></_>
        <_>
          <internalNodes>
            0 -1 387 5.1750607788562775e-02</internalNodes>
          <leafValues>
            -9.4082325696945190e-02 3.5162419080734253e-01</leafValues></_>
        <_>
          <internalNodes>
            0 -1 308 2.1941819787025452e-01</internalNodes>
          <leafValues>
            -9.1014146804809570e-02 3.1871762871742249e-01</leafValues></_>
        <_>
          <internalNodes>
            0 -1 42 -1.0276641696691513e-02</internalNodes>
          <leafValues>
            2.8969609737396240e-01 -1.0205524414777756e-01</leafValues></_>
        <_>
          <internalNodes>
            0 -1 459 8.8147185742855072e-03</internalNodes>
          <leafValues>
            3.5968545824289322e-02 -7.6048678159713745e-01</leafValues></_>
        <_>
          <internalNodes>
            0 -1 302 -4.7035822644829750e-03</internalNodes>
          <leafValues>
            -7.1371001005172729e-01 3.2036293298006058e-02</leafValues></_>
        <_>
          <internalNodes>
            0 -1 183 -4.9354221671819687e-02</internalNodes>
          <leafValues>
            -6.5076094865798950e-01 2.5201782584190369e-02</leafValues></_>
        <_>
          <internalNodes>
            0 -1 362 -1.0327083989977837e-02</internalNodes>
          <leafValues>
            2.2362811863422394e-01 -1.2318802624940872e-01</leafValues></_>
        <_>
          <internalNodes>
            0 -1 468 -1.0209517553448677e-02</internalNodes>
          <leafValues>
            -3.7159112095832825e-01 6.4124919474124908e-02</leafValues></_>
        <_>
          <internalNodes>
            0 -1 266 1.2487568892538548e-02</internalNodes>
          <leafValues>
            -1.3376295566558838e-01 1.7199845612049103e-01</leafValues></_>
        <_>
          <internalNodes>
            0 -1 323 -4.8768278211355209e-02</internalNodes>
          <leafValues>
            5.1219308376312256e-01 -6.2207676470279694e-02</leafValues></_>
        <_>
          <internalNodes>
            0 -1 320 4.5853205956518650e-03</internalNodes>
          <leafValues>
            4.3412595987319946e-02 -6.7177635431289673e-01</leafValues></_>
        <_>
          <internalNodes>
            0 -1 205 3.4651667810976505e-03</internalNodes>
          <leafValues>
            4.2896326631307602e-02 -4.8885157704353333e-01</leafValues></_>
        <_>
          <internalNodes>
            0 -1 188 1.7845151014626026e-03</internalNodes>
          <leafValues>
            -1.5514531731605530e-01 1.5127088129520416e-01</leafValues></_>
        <_>
          <internalNodes>
            0 -1 149 -5.9919981140410528e-05</internalNodes>
          <leafValues>
            -1.8060743808746338e-01 1.3682392239570618e-01</leafValues></_>
        <_>
          <internalNodes>
            0 -1 49 -3.9874053001403809e-01</internalNodes>
          <leafValues>
            7.7724891901016235e-01 -2.4746557697653770e-02</leafValues></_>
        <_>
          <internalNodes>
            0 -1 107 2.3446613922715187e-03</internalNodes>
          <leafValues>
            -7.7770248055458069e-02 2.8432425856590271e-01</leafValues></_>
        <_>
          <internalNodes>
            0 -1 413 -5.1945880986750126e-03</internalNodes>
          <leafValues>
            2.1897754073143005e-01 -1.0333906114101410e-01</leafValues></_>
        <_>
          <internalNodes>
            0 -1 179 -3.0098229646682739e-02</internalNodes>
          <leafValues>
            4.2968437075614929e-01 -4.9847796559333801e-02</leafValues></_>
        <_>
          <internalNodes>
            0 -1 64 3.7580333650112152e-02</internalNodes>
          <leafValues>
            -8.8605128228664398e-02 2.3562698066234589e-01</leafValues></_>
        <_>
          <internalNodes>
            0 -1 465 4.0968684479594231e-03</internalNodes>
          <leafValues>
            4.7072406858205795e-02 -4.5514875650405884e-01</leafValues></_>
        <_>
          <internalNodes>
            0 -1 383 -7.3904125019907951e-03</internalNodes>
          <leafValues>
            -6.8773388862609863e-01 2.5764649733901024e-02</leafValues></_>
        <_>
          <internalNodes>
            0 -1 79 -3.5370513796806335e-03</internalNodes>
          <leafValues>
            -5.1088231801986694e-01 3.2471038401126862e-02</leafValues></_>
        <_>
          <internalNodes>
            0 -1 479 -6.9160498678684235e-03</internalNodes>
          <leafValues>
            2.1306040883064270e-01 -9.3187928199768066e-02</leafValues></_>
        <_>
          <internalNodes>
            0 -1 477 2.0518484525382519e-03</internalNodes>
          <leafValues>
            -7.2638541460037231e-02 2.7567291259765625e-01</leafValues></_>
        <_>
          <internalNodes>
            0 -1 436 -4.9055125564336777e-03</internalNodes>
          <leafValues>
            -5.5978488922119141e-01 3.8760654628276825e-02</leafValues></_>
        <_>
          <internalNodes>
            0 -1 399 1.0046495124697685e-02</internalNodes>
          <leafValues>
            -9.6042610704898834e-02 2.4252860248088837e-01</leafValues></_>
        <_>
          <internalNodes>
            0 -1 358 -2.4462644942104816e-03</internalNodes>
          <leafValues>
            2.3075257241725922e-01 -1.0029675811529160e-01</leafValues></_>
        <_>
          <internalNodes>
            0 -1 251 6.1705239117145538e-02</internalNodes>
          <leafValues>
            -6.6603526473045349e-02 3.8221025466918945e-01</leafValues></_>
        <_>
          <internalNodes>
            0 -1 63 -1.3898631557822227e-02</internalNodes>
          <leafValues>
            2.6759377121925354e-01 -7.7629812061786652e-02</leafValues></_>
        <_>
          <internalNodes>
            0 -1 276 1.0108514130115509e-01</internalNodes>
          <leafValues>
            3.2956827431917191e-02 -6.7820990085601807e-01</leafValues></_>
        <_>
          <internalNodes>
            0 -1 396 7.9167978838086128e-03</internalNodes>
          <leafValues>
            -1.1067794263362885e-01 2.2354854643344879e-01</leafValues></_>
        <_>
          <internalNodes>
            0 -1 34 4.5559428632259369e-02</internalNodes>
          <leafValues>
            4.3467551469802856e-02 -5.1644134521484375e-01</leafValues></_>
        <_>
          <internalNodes>
            0 -1 175 7.0405369624495506e-03</internalNodes>
          <leafValues>
            2.4753693491220474e-02 -6.7726403474807739e-01</leafValues></_>
        <_>
          <internalNodes>
            0 -1 329 1.6063217073678970e-02</internalNodes>
          <leafValues>
            -8.9337430894374847e-02 2.4150928854942322e-01</leafValues></_>
        <_>
          <internalNodes>
            0 -1 110 -4.0122726932168007e-03</internalNodes>
          <leafValues>
            -5.3966915607452393e-01 4.1334174573421478e-02</leafValues></_>
        <_>
          <internalNodes>
            0 -1 392 -2.4161245673894882e-02</internalNodes>
          <leafValues>
            -5.1850324869155884e-01 3.7915393710136414e-02</leafValues></_>
        <_>
          <internalNodes>
            0 -1 214 2.1496351808309555e-02</internalNodes>
          <leafValues>
            -7.0989869534969330e-02 3.1772524118423462e-01</leafValues></_>
        <_>
          <internalNodes>
            0 -1 144 5.2242912352085114e-03</internalNodes>
          <leafValues>
            3.5556424409151077e-02 -6.1148959398269653e-01</leafValues></_>
        <_>
          <internalNodes>
            0 -1 155 5.4750945419073105e-02</internalNodes>
          <leafValues>
            -4.5732386410236359e-02 4.2636638879776001e-01</leafValues></_>
        <_>
          <internalNodes>
            0 -1 72 2.9956575017422438e-03</internalNodes>
          <leafValues>
            5.5527608841657639e-02 -3.5411041975021362e-01</leafValues></_>
        <_>
          <internalNodes>
            0 -1 11 1.2413876538630575e-04</internalNodes>
          <leafValues>
            1.3205595314502716e-01 -1.4663186669349670e-01</leafValues></_>
        <_>
          <internalNodes>
            0 -1 19 -7.8258752822875977e-02</internalNodes>
          <leafValues>
            -3.4003755450248718e-01 5.6706469506025314e-02</leafValues></_>
        <_>
          <internalNodes>
            0 -1 414 -3.7739670276641846e-01</internalNodes>
          <leafValues>
            8.2329344749450684e-01 -2.6866925880312920e-02</leafValues></_>
        <_>
          <internalNodes>
            0 -1 250 -8.3108972758054733e-03</internalNodes>
          <leafValues>
            3.1940299272537231e-01 -4.9640174955129623e-02</leafValues></_>
        <_>
          <internalNodes>
            0 -1 303 -9.8863929451908916e-05</internalNodes>
          <leafValues>
            -1.4617076516151428e-01 1.2665803730487823e-01</leafValues></_>
        <_>
          <internalNodes>
            0 -1 381 4.9814954400062561e-03</internalNodes>
          <leafValues>
            3.6010675132274628e-02 -5.1656699180603027e-01</leafValues></_>
        <_>
          <internalNodes>
            0 -1 385 -6.0249574482440948e-02</internalNodes>
          <leafValues>
            4.1188022494316101e-01 -4.8078987747430801e-02</leafValues></_>
        <_>
          <internalNodes>
            0 -1 435 7.9745409311726689e-04</internalNodes>
          <leafValues>
            -1.2346938252449036e-01 1.5534324944019318e-01</leafValues></_>
        <_>
          <internalNodes>
            0 -1 377 6.5392628312110901e-02</internalNodes>
          <leafValues>
            3.0546443536877632e-02 -6.1809432506561279e-01</leafValues></_>
        <_>
          <internalNodes>
            0 -1 309 -3.7368978373706341e-03</internalNodes>
          <leafValues>
            -4.7947722673416138e-01 3.5242177546024323e-02</leafValues></_>
        <_>
          <internalNodes>
            0 -1 288 1.9212275743484497e-02</internalNodes>
          <leafValues>
            -7.4580155313014984e-02 2.6299095153808594e-01</leafValues></_>
        <_>
          <internalNodes>
            0 -1 352 -1.0903984308242798e-02</internalNodes>
          <leafValues>
            2.8653898835182190e-01 -8.1272520124912262e-02</leafValues></_>
        <_>
          <internalNodes>
            0 -1 394 3.8812020793557167e-03</internalNodes>
          <leafValues>
            4.5030407607555389e-02 -4.9585327506065369e-01</leafValues></_>
        <_>
          <internalNodes>
            0 -1 313 -3.9146386086940765e-02</internalNodes>
          <leafValues>
            4.0366312861442566e-01 -5.2563693374395370e-02</leafValues></_>
        <_>
          <internalNodes>
            0 -1 191 -5.9593491256237030e-02</internalNodes>
          <leafValues>
            3.0902925133705139e-01 -6.4224548637866974e-02</leafValues></_>
        <_>
          <internalNodes>
            0 -1 398 -3.6325007677078247e-03</internalNodes>
          <leafValues>
            1.8044228851795197e-01 -1.0411749035120010e-01</leafValues></_>
        <_>
          <internalNodes>
            0 -1 265 1.2388661503791809e-02</internalNodes>
          <leafValues>
            1.3324198126792908e-01 -1.4759039878845215e-01</leafValues></_>
        <_>
          <internalNodes>
            0 -1 407 -2.5393320247530937e-03</internalNodes>
          <leafValues>
            2.2702927887439728e-01 -8.4703989326953888e-02</leafValues></_>
        <_>
          <internalNodes>
            0 -1 360 -3.1905859708786011e-02</internalNodes>
          <leafValues>
            -8.1408697366714478e-01 2.7642060071229935e-02</leafValues></_>
        <_>
          <internalNodes>
            0 -1 503 6.4255134202539921e-03</internalNodes>
          <leafValues>
            1.4116247184574604e-02 -8.4517461061477661e-01</leafValues></_>
        <_>
          <internalNodes>
            0 -1 498 8.8673032587394118e-04</internalNodes>
          <leafValues>
            -9.4569131731987000e-02 1.7970359325408936e-01</leafValues></_></weakClassifiers></_>
    <!-- stage 7 -->
    <_>
      <maxWeakCount>70</maxWeakCount>
      <stageThreshold>-1.0118565559387207e+00</stageThreshold>
      <weakClassifiers>
        <_>
          <internalNodes>
            0 -1 67 8.0065384507179260e-02</internalNodes>
          <leafValues>
            -1.3670612871646881e-01 6.6389101743698120e-01</leafValues></_>
        <_>
          <internalNodes>
            0 -1 294 2.2178819403052330e-02</internalNodes>
          <leafValues>
            -2.2463393211364746e-01 4.4119158387184143e-01</leafValues></_>
        <_>
          <internalNodes>
            0 -1 315 1.7295282334089279e-02</internalNodes>
          <leafValues>
            -2.1164347231388092e-01 3.6488813161849976e-01</leafValues></_>
        <_>
          <internalNodes>
            0 -1 390 8.7788589298725128e-03</internalNodes>
          <leafValues>
            -2.7493536472320557e-01 2.1703052520751953e-01</leafValues></_>
        <_>
          <internalNodes>
            0 -1 166 1.6034815460443497e-02</internalNodes>
          <leafValues>
            -1.5559118986129761e-01 2.4740189313888550e-01</leafValues></_>
        <_>
          <internalNodes>
            0 -1 21 -4.7006770968437195e-02</internalNodes>
          <leafValues>
            3.8411328196525574e-01 -1.6512538492679596e-01</leafValues></_>
        <_>
          <internalNodes>
            0 -1 297 -3.4871771931648254e-02</internalNodes>
          <leafValues>
            3.8753569126129150e-01 -9.5978528261184692e-02</leafValues></_>
        <_>
          <internalNodes>
            0 -1 84 5.3378820419311523e-02</internalNodes>
          <leafValues>
            -3.7097427994012833e-02 4.4676101207733154e-01</leafValues></_>
        <_>
          <internalNodes>
            0 -1 196 1.3422180898487568e-02</internalNodes>
          <leafValues>
            1.2554922699928284e-01 -2.4083621799945831e-01</leafValues></_>
        <_>
          <internalNodes>
            0 -1 165 3.4026741981506348e-02</internalNodes>
          <leafValues>
            5.1867142319679260e-02 -6.9661039113998413e-01</leafValues></_>
        <_>
          <internalNodes>
            0 -1 117 1.7964079976081848e-02</internalNodes>
          <leafValues>
            4.6063240617513657e-02 -4.8333773016929626e-01</leafValues></_>
        <_>
          <internalNodes>
            0 -1 97 1.7302080988883972e-01</internalNodes>
          <leafValues>
            5.6270156055688858e-02 -4.4338667392730713e-01</leafValues></_>
        <_>
          <internalNodes>
            0 -1 466 -6.8640480749309063e-03</internalNodes>
          <leafValues>
            -8.1485784053802490e-01 3.1227625906467438e-02</leafValues></_>
        <_>
          <internalNodes>
            0 -1 358 4.2692171409726143e-03</internalNodes>
          <leafValues>
            -8.5057087242603302e-02 2.9580461978912354e-01</leafValues></_>
        <_>
          <internalNodes>
            0 -1 318 -2.7240643277764320e-02</internalNodes>
          <leafValues>
            3.1937178969383240e-01 -7.8257516026496887e-02</leafValues></_>
        <_>
          <internalNodes>
            0 -1 197 2.9709735512733459e-01</internalNodes>
          <leafValues>
            -4.7104120254516602e-02 4.2490747570991516e-01</leafValues></_>
        <_>
          <internalNodes>
            0 -1 312 1.1478660628199577e-02</internalNodes>
          <leafValues>
            -9.8918572068214417e-02 2.7297559380531311e-01</leafValues></_>
        <_>
          <internalNodes>
            0 -1 418 4.8649515956640244e-03</internalNodes>
          <leafValues>
            5.2866596728563309e-02 -4.9817088246345520e-01</leafValues></_>
        <_>
          <internalNodes>
            0 -1 353 1.3309400528669357e-02</internalNodes>
          <leafValues>
            -1.1394067853689194e-01 2.1522250771522522e-01</leafValues></_>
        <_>
          <internalNodes>
            0 -1 190 1.1588546913117170e-03</internalNodes>
          <leafValues>
            -1.4790962636470795e-01 2.1005423367023468e-01</leafValues></_>
        <_>
          <internalNodes>
            0 -1 371 6.8600028753280640e-02</internalNodes>
          <leafValues>
            -5.1144234836101532e-02 6.3962227106094360e-01</leafValues></_>
        <_>
          <internalNodes>
            0 -1 256 -4.4663950800895691e-02</internalNodes>
          <leafValues>
            3.9405035972595215e-01 -5.2794940769672394e-02</leafValues></_>
        <_>
          <internalNodes>
            0 -1 457 -2.5062763597816229e-03</internalNodes>
          <leafValues>
            2.3391708731651306e-01 -8.9433759450912476e-02</leafValues></_>
        <_>
          <internalNodes>
            0 -1 476 -4.3146386742591858e-03</internalNodes>
          <leafValues>
            -6.3104426860809326e-01 4.1239123791456223e-02</leafValues></_>
        <_>
          <internalNodes>
            0 -1 285 7.0745155215263367e-02</internalNodes>
          <leafValues>
            -7.2319179773330688e-02 3.3038541674613953e-01</leafValues></_>
        <_>
          <internalNodes>
            0 -1 93 5.4611057043075562e-02</internalNodes>
          <leafValues>
            -7.7704124152660370e-02 3.0903384089469910e-01</leafValues></_>
        <_>
          <internalNodes>
            0 -1 204 1.3623133301734924e-01</internalNodes>
          <leafValues>
            -3.6750733852386475e-02 7.3859387636184692e-01</leafValues></_>
        <_>
          <internalNodes>
            0 -1 71 -3.1781953573226929e-01</internalNodes>
          <leafValues>
            6.9185906648635864e-01 -2.8303749859333038e-02</leafValues></_>
        <_>
          <internalNodes>
            0 -1 496 -3.2953852787613869e-03</internalNodes>
          <leafValues>
            2.1065682172775269e-01 -1.2517224252223969e-01</leafValues></_>
        <_>
          <internalNodes>
            0 -1 363 -1.3450950384140015e-02</internalNodes>
          <leafValues>
            2.8467833995819092e-01 -8.3157479763031006e-02</leafValues></_>
        <_>
          <internalNodes>
            0 -1 326 -2.5079008191823959e-02</internalNodes>
          <leafValues>
            -7.6168388128280640e-01 3.4365423023700714e-02</leafValues></_>
        <_>
          <internalNodes>
            0 -1 348 -1.9033928401768208e-03</internalNodes>
          <leafValues>
            2.1753640472888947e-01 -1.0872544348239899e-01</leafValues></_>
        <_>
          <internalNodes>
            0 -1 124 -1.1539900302886963e-01</internalNodes>
          <leafValues>
            -5.8359169960021973e-01 3.2977242022752762e-02</leafValues></_>
        <_>
          <internalNodes>
            0 -1 375 4.7629125416278839e-02</internalNodes>
          <leafValues>
            -3.6007702350616455e-02 6.3601452112197876e-01</leafValues></_>
        <_>
          <internalNodes>
            0 -1 53 -1.8641176819801331e-01</internalNodes>
          <leafValues>
            -7.9233902692794800e-01 3.1922876834869385e-02</leafValues></_>
        <_>
          <internalNodes>
            0 -1 246 2.5599608197808266e-03</internalNodes>
          <leafValues>
            4.5964140444993973e-02 -4.2460447549819946e-01</leafValues></_>
        <_>
          <internalNodes>
            0 -1 368 3.3576812595129013e-02</internalNodes>
          <leafValues>
            4.8803783953189850e-02 -4.3960320949554443e-01</leafValues></_>
        <_>
          <internalNodes>
            0 -1 274 2.5322716683149338e-02</internalNodes>
          <leafValues>
            -1.0088945925235748e-01 2.0583812892436981e-01</leafValues></_>
        <_>
          <internalNodes>
            0 -1 174 -3.3272739499807358e-02</internalNodes>
          <leafValues>
            2.8305688500404358e-01 -8.7939955294132233e-02</leafValues></_>
        <_>
          <internalNodes>
            0 -1 421 6.4522068714722991e-04</internalNodes>
          <leafValues>
            -1.3001582026481628e-01 1.6706508398056030e-01</leafValues></_>
        <_>
          <internalNodes>
            0 -1 170 4.2839227244257927e-03</internalNodes>
          <leafValues>
            3.2684475183486938e-02 -5.7037645578384399e-01</leafValues></_>
        <_>
          <internalNodes>
            0 -1 161 5.1320865750312805e-03</internalNodes>
          <leafValues>
            2.6832221075892448e-02 -6.6058021783828735e-01</leafValues></_>
        <_>
          <internalNodes>
            0 -1 254 -7.1667939424514771e-02</internalNodes>
          <leafValues>
            -5.3867745399475098e-01 3.4439895302057266e-02</leafValues></_>
        <_>
          <internalNodes>
            0 -1 62 2.3682156205177307e-01</internalNodes>
          <leafValues>
            3.6809284240007401e-02 -5.5729353427886963e-01</leafValues></_>
        <_>
          <internalNodes>
            0 -1 481 -3.6179057788103819e-03</internalNodes>
          <leafValues>
            -4.9075266718864441e-01 3.3302977681159973e-02</leafValues></_>
        <_>
          <internalNodes>
            0 -1 471 1.1555049568414688e-02</internalNodes>
          <leafValues>
            -8.4931589663028717e-02 2.3292323946952820e-01</leafValues></_>
        <_>
          <internalNodes>
            0 -1 132 4.4208960607647896e-03</internalNodes>
          <leafValues>
            -1.0513731837272644e-01 1.9104368984699249e-01</leafValues></_>
        <_>
          <internalNodes>
            0 -1 138 4.5717060565948486e-03</internalNodes>
          <leafValues>
            4.5389540493488312e-02 -4.4531083106994629e-01</leafValues></_>
        <_>
          <internalNodes>
            0 -1 122 -2.8554142918437719e-03</internalNodes>
          <leafValues>
            1.9402737915515900e-01 -1.1421853303909302e-01</leafValues></_>
        <_>
          <internalNodes>
            0 -1 136 1.7110407352447510e-02</internalNodes>
          <leafValues>
            -1.2323778122663498e-01 1.5388876199722290e-01</leafValues></_>
        <_>
          <internalNodes>
            0 -1 129 3.4975519776344299e-01</internalNodes>
          <leafValues>
            3.4371465444564819e-02 -7.1626549959182739e-01</leafValues></_>
        <_>
          <internalNodes>
            0 -1 50 -1.9739425182342529e-01</internalNodes>
          <leafValues>
            -6.5776884555816650e-01 2.7190469205379486e-02</leafValues></_>
        <_>
          <internalNodes>
            0 -1 4 -1.6075323801487684e-03</internalNodes>
          <leafValues>
            -1.9621056318283081e-01 9.2584893107414246e-02</leafValues></_>
        <_>
          <internalNodes>
            0 -1 3 1.4487319276668131e-04</internalNodes>
          <leafValues>
            1.2693284451961517e-01 -1.5963688492774963e-01</leafValues></_>
        <_>
          <internalNodes>
            0 -1 281 2.1010346710681915e-02</internalNodes>
          <leafValues>
            -3.8090918213129044e-02 4.4732287526130676e-01</leafValues></_>
        <_>
          <internalNodes>
            0 -1 337 1.6570074949413538e-03</internalNodes>
          <leafValues>
            -1.3247576355934143e-01 1.5762597322463989e-01</leafValues></_>
        <_>
          <internalNodes>
            0 -1 120 2.7195824310183525e-02</internalNodes>
          <leafValues>
            4.1760653257369995e-02 -4.8322269320487976e-01</leafValues></_>
        <_>
          <internalNodes>
            0 -1 433 -8.5592903196811676e-03</internalNodes>
          <leafValues>
            2.2607055306434631e-01 -9.0900667011737823e-02</leafValues></_>
        <_>
          <internalNodes>
            0 -1 24 1.3224773108959198e-02</internalNodes>
          <leafValues>
            -6.7200899124145508e-02 3.1389185786247253e-01</leafValues></_>
        <_>
          <internalNodes>
            0 -1 248 2.6141427457332611e-02</internalNodes>
          <leafValues>
            3.5182416439056396e-02 -5.8650273084640503e-01</leafValues></_>
        <_>
          <internalNodes>
            0 -1 446 -3.8639389094896615e-04</internalNodes>
          <leafValues>
            -1.5262746810913086e-01 1.2948629260063171e-01</leafValues></_>
        <_>
          <internalNodes>
            0 -1 494 1.1426983401179314e-02</internalNodes>
          <leafValues>
            3.6895655095577240e-02 -5.3512459993362427e-01</leafValues></_>
        <_>
          <internalNodes>
            0 -1 118 -7.4701026082038879e-02</internalNodes>
          <leafValues>
            6.3176435232162476e-01 -3.2561343163251877e-02</leafValues></_>
        <_>
          <internalNodes>
            0 -1 376 9.0330243110656738e-03</internalNodes>
          <leafValues>
            6.7946314811706543e-02 -2.7815362811088562e-01</leafValues></_>
        <_>
          <internalNodes>
            0 -1 169 1.1069683823734522e-03</internalNodes>
          <leafValues>
            -9.8703511059284210e-02 1.7841653525829315e-01</leafValues></_>
        <_>
          <internalNodes>
            0 -1 146 6.3658612780272961e-03</internalNodes>
          <leafValues>
            2.2080156952142715e-02 -7.3025590181350708e-01</leafValues></_>
        <_>
          <internalNodes>
            0 -1 497 -2.6731253601610661e-03</internalNodes>
          <leafValues>
            -3.7141484022140503e-01 4.2616065591573715e-02</leafValues></_>
        <_>
          <internalNodes>
            0 -1 268 4.6607251279056072e-03</internalNodes>
          <leafValues>
            -9.7259178757667542e-02 1.7789015173912048e-01</leafValues></_>
        <_>
          <internalNodes>
            0 -1 227 2.7131871320307255e-03</internalNodes>
          <leafValues>
            -1.3875591754913330e-01 1.3239395618438721e-01</leafValues></_>
        <_>
          <internalNodes>
            0 -1 243 6.1687733978033066e-03</internalNodes>
          <leafValues>
            3.9033733308315277e-02 -4.8869293928146362e-01</leafValues></_></weakClassifiers></_>
    <!-- stage 8 -->
    <_>
      <maxWeakCount>81</maxWeakCount>
      <stageThreshold>-1.0240194797515869e+00</stageThreshold>
      <weakClassifiers>
        <_>
          <internalNodes>
            0 -1 96 3.3362116664648056e-02</internalNodes>
          <leafValues>
            -1.4285714924335480e-01 6.5671640634536743e-01</leafValues></_>
        <_>
          <internalNodes>
            0 -1 111 5.4050624370574951e-02</internalNodes>
          <leafValues>
            -2.3199674487113953e-01 4.5140600204467773e-01</leafValues></_>
        <_>
          <internalNodes>
            0 -1 317 2.5668337941169739e-02</internalNodes>
          <leafValues>
            -1.7604996263980865e-01 3.4525907039642334e-01</leafValues></_>
        <_>
          <internalNodes>
            0 -1 393 7.1543734520673752e-03</internalNodes>
          <leafValues>
            -2.5254264473915100e-01 1.7914283275604248e-01</leafValues></_>
        <_>
          <internalNodes>
            0 -1 142 4.6410821378231049e-03</internalNodes>
          <leafValues>
            6.3736595213413239e-02 -6.3453567028045654e-01</leafValues></_>
        <_>
          <internalNodes>
            0 -1 126 5.6473733857274055e-03</internalNodes>
          <leafValues>
            4.1321139782667160e-02 -6.1538833379745483e-01</leafValues></_>
        <_>
          <internalNodes>
            0 -1 150 -4.5908078551292419e-02</internalNodes>
          <leafValues>
            2.7414155006408691e-01 -1.1026117205619812e-01</leafValues></_>
        <_>
          <internalNodes>
            0 -1 18 -6.3186250627040863e-03</internalNodes>
          <leafValues>
            2.9283550381660461e-01 -1.5817329287528992e-01</leafValues></_>
        <_>
          <internalNodes>
            0 -1 311 4.6699200756847858e-03</internalNodes>
          <leafValues>
            -5.7263039052486420e-02 4.1081932187080383e-01</leafValues></_>
        <_>
          <internalNodes>
            0 -1 38 -5.4547286033630371e-01</internalNodes>
          <leafValues>
            6.2725472450256348e-01 -3.8391966372728348e-02</leafValues></_>
        <_>
          <internalNodes>
            0 -1 160 4.1937333345413208e-01</internalNodes>
          <leafValues>
            -6.2482416629791260e-02 3.9691469073295593e-01</leafValues></_>
        <_>
          <internalNodes>
            0 -1 331 -2.0231671631336212e-02</internalNodes>
          <leafValues>
            1.1270616948604584e-01 -2.3592232167720795e-01</leafValues></_>
        <_>
          <internalNodes>
            0 -1 291 7.2696795687079430e-03</internalNodes>
          <leafValues>
            -8.8230676949024200e-02 3.1798681616783142e-01</leafValues></_>
        <_>
          <internalNodes>
            0 -1 211 4.5829727314412594e-03</internalNodes>
          <leafValues>
            4.8486240208148956e-02 -5.3671860694885254e-01</leafValues></_>
        <_>
          <internalNodes>
            0 -1 68 -2.1870996803045273e-02</internalNodes>
          <leafValues>
            3.7766087055206299e-01 -6.0033455491065979e-02</leafValues></_>
        <_>
          <internalNodes>
            0 -1 184 9.3016205355525017e-03</internalNodes>
          <leafValues>
            3.0776863917708397e-02 -8.0611860752105713e-01</leafValues></_>
        <_>
          <internalNodes>
            0 -1 140 8.6917644366621971e-03</internalNodes>
          <leafValues>
            -1.2524794042110443e-01 1.9991271197795868e-01</leafValues></_>
        <_>
          <internalNodes>
            0 -1 215 -1.0781579464673996e-01</internalNodes>
          <leafValues>
            -7.7020293474197388e-01 3.1300853937864304e-02</leafValues></_>
        <_>
          <internalNodes>
            0 -1 212 1.4414157485589385e-03</internalNodes>
          <leafValues>
            -1.2629817426204681e-01 1.7326921224594116e-01</leafValues></_>
        <_>
          <internalNodes>
            0 -1 238 2.9765758663415909e-02</internalNodes>
          <leafValues>
            -6.7093864083290100e-02 3.4454467892646790e-01</leafValues></_>
        <_>
          <internalNodes>
            0 -1 139 2.4075722321867943e-03</internalNodes>
          <leafValues>
            -1.0453581064939499e-01 2.1329216659069061e-01</leafValues></_>
        <_>
          <internalNodes>
            0 -1 370 -1.1460853368043900e-01</internalNodes>
          <leafValues>
            -5.8679097890853882e-01 3.2919134944677353e-02</leafValues></_>
        <_>
          <internalNodes>
            0 -1 137 6.7049060016870499e-03</internalNodes>
          <leafValues>
            2.5227915495634079e-02 -7.0762068033218384e-01</leafValues></_>
        <_>
          <internalNodes>
            0 -1 235 4.4156322255730629e-03</internalNodes>
          <leafValues>
            3.1261790543794632e-02 -5.6733882427215576e-01</leafValues></_>
        <_>
          <internalNodes>
            0 -1 333 -1.1177799664437771e-02</internalNodes>
          <leafValues>
            2.6096445322036743e-01 -8.7852694094181061e-02</leafValues></_>
        <_>
          <internalNodes>
            0 -1 223 -3.7572413682937622e-02</internalNodes>
          <leafValues>
            1.4047996699810028e-01 -1.8224510550498962e-01</leafValues></_>
        <_>
          <internalNodes>
            0 -1 298 2.0080961287021637e-02</internalNodes>
          <leafValues>
            -4.9210719764232635e-02 4.0506720542907715e-01</leafValues></_>
        <_>
          <internalNodes>
            0 -1 201 -6.0251552611589432e-02</internalNodes>
          <leafValues>
            3.7201896309852600e-01 -5.8152694255113602e-02</leafValues></_>
        <_>
          <internalNodes>
            0 -1 286 3.0341342790052295e-04</internalNodes>
          <leafValues>
            1.6518643498420715e-01 -1.2842078506946564e-01</leafValues></_>
        <_>
          <internalNodes>
            0 -1 347 -9.0906955301761627e-03</internalNodes>
          <leafValues>
            -8.6788552999496460e-01 1.9703269004821777e-02</leafValues></_>
        <_>
          <internalNodes>
            0 -1 301 -4.2201951146125793e-03</internalNodes>
          <leafValues>
            -5.8016902208328247e-01 2.9243806377053261e-02</leafValues></_>
        <_>
          <internalNodes>
            0 -1 510 2.2805041226092726e-05</internalNodes>
          <leafValues>
            1.1971812695264816e-01 -1.7066681385040283e-01</leafValues></_>
        <_>
          <internalNodes>
            0 -1 433 2.1880712360143661e-02</internalNodes>
          <leafValues>
            -4.4758986681699753e-02 4.0622422099113464e-01</leafValues></_>
        <_>
          <internalNodes>
            0 -1 77 9.9314227700233459e-02</internalNodes>
          <leafValues>
            -8.7818227708339691e-02 2.4027206003665924e-01</leafValues></_>
        <_>
          <internalNodes>
            0 -1 429 8.4971450269222260e-03</internalNodes>
          <leafValues>
            2.9478909447789192e-02 -7.1893388032913208e-01</leafValues></_>
        <_>
          <internalNodes>
            0 -1 307 -1.0709843784570694e-01</internalNodes>
          <leafValues>
            4.3857106566429138e-01 -4.7129213809967041e-02</leafValues></_>
        <_>
          <internalNodes>
            0 -1 476 5.7514877989888191e-03</internalNodes>
          <leafValues>
            2.9829569160938263e-02 -7.5811791419982910e-01</leafValues></_>
        <_>
          <internalNodes>
            0 -1 474 -1.9632116891443729e-03</internalNodes>
          <leafValues>
            1.7464849352836609e-01 -1.1166150867938995e-01</leafValues></_>
        <_>
          <internalNodes>
            0 -1 275 4.9674928188323975e-02</internalNodes>
          <leafValues>
            1.0933594405651093e-01 -1.8712754547595978e-01</leafValues></_>
        <_>
          <internalNodes>
            0 -1 334 5.6440224871039391e-03</internalNodes>
          <leafValues>
            -1.0189308971166611e-01 1.8928769230842590e-01</leafValues></_>
        <_>
          <internalNodes>
            0 -1 325 8.3341887220740318e-03</internalNodes>
          <leafValues>
            3.2050181180238724e-02 -7.4009025096893311e-01</leafValues></_>
        <_>
          <internalNodes>
            0 -1 321 -2.8169911354780197e-02</internalNodes>
          <leafValues>
            3.5047188401222229e-01 -6.0697890818119049e-02</leafValues></_>
        <_>
          <internalNodes>
            0 -1 449 2.9973709024488926e-03</internalNodes>
          <leafValues>
            -1.3569678366184235e-01 1.7658795416355133e-01</leafValues></_>
        <_>
          <internalNodes>
            0 -1 330 -2.5155585259199142e-02</internalNodes>
          <leafValues>
            3.3776274323463440e-01 -6.9851316511631012e-02</leafValues></_>
        <_>
          <internalNodes>
            0 -1 253 -1.3825690373778343e-02</internalNodes>
          <leafValues>
            -2.9913127422332764e-01 6.5498366951942444e-02</leafValues></_>
        <_>
          <internalNodes>
            0 -1 25 -2.4663932621479034e-02</internalNodes>
          <leafValues>
            -4.8736506700515747e-01 3.4309223294258118e-02</leafValues></_>
        <_>
          <internalNodes>
            0 -1 99 2.2742809727787971e-02</internalNodes>
          <leafValues>
            5.5161796510219574e-02 -2.9668307304382324e-01</leafValues></_>
        <_>
          <internalNodes>
            0 -1 95 -1.7459788359701633e-03</internalNodes>
          <leafValues>
            2.1728415787220001e-01 -8.6405970156192780e-02</leafValues></_>
        <_>
          <internalNodes>
            0 -1 180 1.3569220900535583e-01</internalNodes>
          <leafValues>
            2.6533499360084534e-02 -8.1460422277450562e-01</leafValues></_>
        <_>
          <internalNodes>
            0 -1 241 -7.8641146421432495e-02</internalNodes>
          <leafValues>
            -6.1360269784927368e-01 2.3840207606554031e-02</leafValues></_>
        <_>
          <internalNodes>
            0 -1 73 -4.5146513730287552e-02</internalNodes>
          <leafValues>
            3.3062601089477539e-01 -5.6402686983346939e-02</leafValues></_>
        <_>
          <internalNodes>
            0 -1 28 8.0963663756847382e-02</internalNodes>
          <leafValues>
            -4.8960920423269272e-02 3.5796433687210083e-01</leafValues></_>
        <_>
          <internalNodes>
            0 -1 127 -1.9212214276194572e-02</internalNodes>
          <leafValues>
            3.4170180559158325e-01 -7.3201797902584076e-02</leafValues></_>
        <_>
          <internalNodes>
            0 -1 32 -1.0780396405607462e-04</internalNodes>
          <leafValues>
            -1.5037596225738525e-01 1.1960439383983612e-01</leafValues></_>
        <_>
          <internalNodes>
            0 -1 499 -1.0143489344045520e-03</internalNodes>
          <leafValues>
            1.9106391072273254e-01 -9.6187919378280640e-02</leafValues></_>
        <_>
          <internalNodes>
            0 -1 33 -1.7400138080120087e-02</internalNodes>
          <leafValues>
            -3.4331750869750977e-01 5.1075752824544907e-02</leafValues></_>
        <_>
          <internalNodes>
            0 -1 420 7.1807177737355232e-03</internalNodes>
          <leafValues>
            1.9868722185492516e-02 -8.0004209280014038e-01</leafValues></_>
        <_>
          <internalNodes>
            0 -1 339 7.4065243825316429e-04</internalNodes>
          <leafValues>
            -1.5321679413318634e-01 1.1717180907726288e-01</leafValues></_>
        <_>
          <internalNodes>
            0 -1 417 1.9661900587379932e-03</internalNodes>
          <leafValues>
            -8.8271513581275940e-02 1.8877243995666504e-01</leafValues></_>
        <_>
          <internalNodes>
            0 -1 467 -7.3476566467434168e-04</internalNodes>
          <leafValues>
            1.4465561509132385e-01 -1.2444407492876053e-01</leafValues></_>
        <_>
          <internalNodes>
            0 -1 509 4.0189046412706375e-02</internalNodes>
          <leafValues>
            4.4148582965135574e-02 -3.8828492164611816e-01</leafValues></_>
        <_>
          <internalNodes>
            0 -1 324 -1.4924541115760803e-01</internalNodes>
          <leafValues>
            -7.7092409133911133e-01 2.2253844887018204e-02</leafValues></_>
        <_>
          <internalNodes>
            0 -1 445 -4.1162921115756035e-03</internalNodes>
          <leafValues>
            -5.7589656114578247e-01 2.8041927143931389e-02</leafValues></_>
        <_>
          <internalNodes>
            0 -1 2 2.5708959583425894e-05</internalNodes>
          <leafValues>
            1.1513450741767883e-01 -1.4649207890033722e-01</leafValues></_>
        <_>
          <internalNodes>
            0 -1 168 5.8979955501854420e-03</internalNodes>
          <leafValues>
            2.9690654948353767e-02 -5.5351775884628296e-01</leafValues></_>
        <_>
          <internalNodes>
            0 -1 492 -3.8715439586667344e-05</internalNodes>
          <leafValues>
            -1.3155873119831085e-01 1.1838653683662415e-01</leafValues></_>
        <_>
          <internalNodes>
            0 -1 52 -1.5320947766304016e-01</internalNodes>
          <leafValues>
            1.7780639231204987e-01 -1.0088258981704712e-01</leafValues></_>
        <_>
          <internalNodes>
            0 -1 392 -2.4854201823472977e-02</internalNodes>
          <leafValues>
            -4.5267468690872192e-01 4.0149126201868057e-02</leafValues></_>
        <_>
          <internalNodes>
            0 -1 327 5.6299362331628799e-02</internalNodes>
          <leafValues>
            -2.7492392808198929e-02 7.3523849248886108e-01</leafValues></_>
        <_>
          <internalNodes>
            0 -1 177 4.4804429635405540e-03</internalNodes>
          <leafValues>
            -1.0902704298496246e-01 1.5625128149986267e-01</leafValues></_>
        <_>
          <internalNodes>
            0 -1 405 -2.0052537322044373e-02</internalNodes>
          <leafValues>
            2.8867512941360474e-01 -6.3811436295509338e-02</leafValues></_>
        <_>
          <internalNodes>
            0 -1 251 8.2338213920593262e-02</internalNodes>
          <leafValues>
            -3.5358335822820663e-02 4.4588914513587952e-01</leafValues></_>
        <_>
          <internalNodes>
            0 -1 283 7.6134214177727699e-03</internalNodes>
          <leafValues>
            -1.0066948086023331e-01 1.9585521519184113e-01</leafValues></_>
        <_>
          <internalNodes>
            0 -1 123 -1.6281934222206473e-03</internalNodes>
          <leafValues>
            -2.2028322517871857e-01 9.1156542301177979e-02</leafValues></_>
        <_>
          <internalNodes>
            0 -1 353 2.3218613117933273e-02</internalNodes>
          <leafValues>
            -7.3949947953224182e-02 2.6120892167091370e-01</leafValues></_>
        <_>
          <internalNodes>
            0 -1 123 1.1525312438607216e-02</internalNodes>
          <leafValues>
            4.8366434872150421e-02 -4.3828472495079041e-01</leafValues></_>
        <_>
          <internalNodes>
            0 -1 458 -1.2913788668811321e-03</internalNodes>
          <leafValues>
            1.9928537309169769e-01 -8.9844688773155212e-02</leafValues></_>
        <_>
          <internalNodes>
            0 -1 470 -3.9538368582725525e-02</internalNodes>
          <leafValues>
            -5.4455560445785522e-01 3.3813092857599258e-02</leafValues></_>
        <_>
          <internalNodes>
            0 -1 464 -1.7855052137747407e-03</internalNodes>
          <leafValues>
            1.7457355558872223e-01 -1.0096062719821930e-01</leafValues></_>
        <_>
          <internalNodes>
            0 -1 391 7.9887330532073975e-02</internalNodes>
          <leafValues>
            -4.0282022207975388e-02 4.3765184283256531e-01</leafValues></_>
        <_>
          <internalNodes>
            0 -1 295 -1.1686532525345683e-04</internalNodes>
          <leafValues>
            -1.3838082551956177e-01 1.3232782483100891e-01</leafValues></_></weakClassifiers></_>
    <!-- stage 9 -->
    <_>
      <maxWeakCount>80</maxWeakCount>
      <stageThreshold>-9.3675500154495239e-01</stageThreshold>
      <weakClassifiers>
        <_>
          <internalNodes>
            0 -1 57 1.1615151166915894e-01</internalNodes>
          <leafValues>
            -6.4642503857612610e-02 6.6395443677902222e-01</leafValues></_>
        <_>
          <internalNodes>
            0 -1 210 2.0252529531717300e-02</internalNodes>
          <leafValues>
            -2.5595781207084656e-01 3.6039838194847107e-01</leafValues></_>
        <_>
          <internalNodes>
            0 -1 75 2.3087050765752792e-02</internalNodes>
          <leafValues>
            -2.1368911862373352e-01 4.1486921906471252e-01</leafValues></_>
        <_>
          <internalNodes>
            0 -1 482 -1.6239868709817529e-03</internalNodes>
          <leafValues>
            2.8965866565704346e-01 -2.1424859762191772e-01</leafValues></_>
        <_>
          <internalNodes>
            0 -1 16 -5.3649410605430603e-02</internalNodes>
          <leafValues>
            4.2266368865966797e-01 -1.3013917207717896e-01</leafValues></_>
        <_>
          <internalNodes>
            0 -1 490 1.7678111791610718e-02</internalNodes>
          <leafValues>
            -1.2770190834999084e-01 2.6326298713684082e-01</leafValues></_>
        <_>
          <internalNodes>
            0 -1 125 6.1035156250000000e-03</internalNodes>
          <leafValues>
            4.2328607290983200e-02 -6.3950854539871216e-01</leafValues></_>
        <_>
          <internalNodes>
            0 -1 225 -1.0129639878869057e-02</internalNodes>
          <leafValues>
            -4.1443261504173279e-01 6.2631398439407349e-02</leafValues></_>
        <_>
          <internalNodes>
            0 -1 143 1.4830729365348816e-01</internalNodes>
          <leafValues>
            4.2147774249315262e-02 -6.1202687025070190e-01</leafValues></_>
        <_>
          <internalNodes>
            0 -1 220 4.4992983341217041e-02</internalNodes>
          <leafValues>
            -6.0651190578937531e-02 3.6424046754837036e-01</leafValues></_>
        <_>
          <internalNodes>
            0 -1 92 5.8188525144942105e-05</internalNodes>
          <leafValues>
            1.2696750462055206e-01 -1.8667873740196228e-01</leafValues></_>
        <_>
          <internalNodes>
            0 -1 59 -2.0674630999565125e-02</internalNodes>
          <leafValues>
            -4.2783978581428528e-01 5.2716095000505447e-02</leafValues></_>
        <_>
          <internalNodes>
            0 -1 176 3.4060245379805565e-03</internalNodes>
          <leafValues>
            5.9819091111421585e-02 -3.8005191087722778e-01</leafValues></_>
        <_>
          <internalNodes>
            0 -1 185 6.6856839694082737e-03</internalNodes>
          <leafValues>
            -1.3471002876758575e-01 1.7040544748306274e-01</leafValues></_>
        <_>
          <internalNodes>
