<?xml version="1.0"?>
<opencv_storage>
<cascade>
  <stageType>BOOST</stageType>
  <featureType>HAAR</featureType>
  <height>29</height>
  <width>52</width>
  <stageParams>
    <boostType>GAB</boostType>
    <minHitRate>9.9500000476837158e-01</minHitRate>
    <maxFalseAlarm>5.0000000000000000e-01</maxFalseAlarm>
    <weightTrimRate>9.4999999999999996e-01</weightTrimRate>
    <maxDepth>1</maxDepth>
    <maxWeakCount>100</maxWeakCount></stageParams>
  <featureParams>
    <maxCatCount>0</maxCatCount>
    <featSize>1</featSize>
    <mode>BASIC</mode></featureParams>
  <stageNum>3</stageNum>
  <stages>
    <!-- stage 0 -->
    <_>
      <maxWeakCount>2</maxWeakCount>
      <stageThreshold>1.1102230246251565e-16</stageThreshold>
      <weakClassifiers>
        <_>
          <internalNodes>
            0 -1 2 -9.6567563712596893e-02</internalNodes>
          <leafValues>
            1. -9.9004977941513062e-01</leafValues></_>
        <_>
          <internalNodes>
            0 -1 1 -2.5715065002441406e-01</internalNodes>
          <leafValues>
            1. -1.</leafValues></_></weakClassifiers></_>
    <!-- stage 1 -->
    <_>
      <maxWeakCount>2</maxWeakCount>
      <stageThreshold>-6.8714714050292969e-01</stageThreshold>
      <weakClassifiers>
        <_>
          <internalNodes>
            0 -1 0 1.5364037454128265e-01</internalNodes>
          <leafValues>
            -9.8391962051391602e-01 5.2727270126342773e-01</leafValues></_>
        <_>
          <internalNodes>
            0 -1 3 -2.3696325719356537e-01</internalNodes>
          <leafValues>
            2.9677245020866394e-01 -1.</leafValues></_></weakClassifiers></_>
    <!-- stage 2 -->
    <_>
      <maxWeakCount>3</maxWeakCount>
      <stageThreshold>-1.3290315866470337e+00</stageThreshold>
      <weakClassifiers>
        <_>
          <internalNodes>
            0 -1 5 -5.0091971643269062e-03</internalNodes>
          <leafValues>
            4.8275861144065857e-01 -9.8588711023330688e-01</leafValues></_>
        <_>
          <internalNodes>
            0 -1 6 5.3061237558722496e-03</internalNodes>
          <leafValues>
            -9.6723651885986328e-01 6.3863265514373779e-01</leafValues></_>
        <_>
          <internalNodes>
            0 -1 4 2.7109384536743164e-03</internalNodes>
          <leafValues>
            -9.8177713155746460e-01 6.3460999727249146e-01</leafValues></_></weakClassifiers></_></stages>
  <features>
    <_>
      <rects>
        <_>
          3 0 14 20 -1.</_>
        <_>
          3 10 14 10 2.</_></rects>
      <tilted>0</tilted></_>
    <_>
      <rects>
        <_>
          4 13 48 8 -1.</_>
        <_>
          28 13 24 8 2.</_></rects>
      <tilted>0</tilted></_>
    <_>
      <rects>
        <_>
          13 1 22 12 -1.</_>
        <_>
          13 5 22 4 3.</_></rects>
      <tilted>0</tilted></_>
    <_>
      <rects>
        <_>
          17 10 34 16 -1.</_>
        <_>
          34 10 17 16 2.</_></rects>
      <tilted>0</tilted></_>
    <_>
      <rects>
        <_>
          22 25 6 3 -1.</_>
        <_>
          22 26 6 1 3.</_></rects>
      <tilted>0</tilted></_>
    <_>
      <rects>
        <_>
          22 27 10 2 -1.</_>
        <_>
          22 28 10 1 2.</_></rects>
      <tilted>0</tilted></_>
    <_>
      <rects>
        <_>
          23 1 7 3 -1.</_>
        <_>
          23 2 7 1 3.</_></rects>
      <tilted>0</tilted></_></features></cascade>
</opencv_storage>
